<?xml version="1.0"?>
<opencv_storage>
<stage8>
  <maxWeakCount>18</maxWeakCount>
  <stageThreshold>-9.4043779373168945e-01</stageThreshold>
  <weakClassifiers>
    <_>
      <internalNodes>
        0 -1 1438074 -9.2405751347541809e-03</internalNodes>
      <leafValues>
        4.9295774102210999e-01 -3.0465948581695557e-01</leafValues></_>
    <_>
      <internalNodes>
        0 -1 293684 8.4245402831584215e-04</internalNodes>
      <leafValues>
        1.4820179343223572e-01 -5.3942155838012695e-01</leafValues></_>
    <_>
      <internalNodes>
        0 -1 1385157 -5.8348458260297775e-03</internalNodes>
      <leafValues>
        5.2924889326095581e-01 -1.4727362990379333e-01</leafValues></_>
    <_>
      <internalNodes>
        0 -1 1440648 -1.1698888614773750e-02</internalNodes>
      <leafValues>
        5.9295195341110229e-01 -1.3173460960388184e-01</leafValues></_>
    <_>
      <internalNodes>
        0 -1 2021235 -6.4936827402561903e-04</internalNodes>
      <leafValues>
        -5.7219469547271729e-01 1.5166710317134857e-01</leafValues></_>
    <_>
      <internalNodes>
        0 -1 1432216 -1.8871512264013290e-02</internalNodes>
      <leafValues>
        -5.2522611618041992e-01 1.3786709308624268e-01</leafValues></_>
    <_>
      <internalNodes>
        0 -1 1543607 6.2148175202310085e-03</internalNodes>
      <leafValues>
        -2.1625296771526337e-01 3.8770967721939087e-01</leafValues></_>
    <_>
      <internalNodes>
        0 -1 212062 -6.3868798315525055e-03</internalNodes>
      <leafValues>
        -5.8576941490173340e-01 1.5629562735557556e-01</leafValues></_>
    <_>
      <internalNodes>
        0 -1 215984 2.8201243840157986e-03</internalNodes>
      <leafValues>
        1.2193046510219574e-01 -6.2345641851425171e-01</leafValues></_>
    <_>
      <internalNodes>
        0 -1 1974022 -1.0317994747310877e-03</internalNodes>
      <leafValues>
        6.6818290948867798e-01 -1.1245670914649963e-01</leafValues></_>
    <_>
      <internalNodes>
        0 -1 1528156 -6.7273015156388283e-04</internalNodes>
      <leafValues>
        -5.3156369924545288e-01 1.5777772665023804e-01</leafValues></_>
    <_>
      <internalNodes>
        0 -1 1395876 -2.4414432700723410e-03</internalNodes>
      <leafValues>
        6.7302596569061279e-01 -1.3771659135818481e-01</leafValues></_>
    <_>
      <internalNodes>
        0 -1 1700517 -2.8496142476797104e-03</internalNodes>
      <leafValues>
        4.6102133393287659e-01 -1.5524058043956757e-01</leafValues></_>
    <_>
      <internalNodes>
        0 -1 1849253 9.7065102308988571e-03</internalNodes>
      <leafValues>
        -1.3302211463451385e-01 6.2593179941177368e-01</leafValues></_>
    <_>
      <internalNodes>
        0 -1 1953389 -5.2359364926815033e-03</internalNodes>
      <leafValues>
        3.5593110322952271e-01 -2.2316113114356995e-01</leafValues></_>
    <_>
      <internalNodes>
        0 -1 1913864 5.0734356045722961e-04</internalNodes>
      <leafValues>
        1.3974829018115997e-01 -5.9354066848754883e-01</leafValues></_>
    <_>
      <internalNodes>
        0 -1 1016361 1.2960558524355292e-03</internalNodes>
      <leafValues>
        -2.2149248421192169e-01 3.7502676248550415e-01</leafValues></_>
    <_>
      <internalNodes>
        0 -1 1683001 -4.4513801112771034e-03</internalNodes>
      <leafValues>
        5.1058292388916016e-01 -1.7091558873653412e-01</leafValues></_></weakClassifiers></stage8>
</opencv_storage>
