<?xml version="1.0"?>
<opencv_storage>
<stage10>
  <maxWeakCount>23</maxWeakCount>
  <stageThreshold>-7.5448387861251831e-01</stageThreshold>
  <weakClassifiers>
    <_>
      <internalNodes>
        0 -1 581620 -1.6904158983379602e-03</internalNodes>
      <leafValues>
        7.8817732632160187e-02 -4.4897958636283875e-01</leafValues></_>
    <_>
      <internalNodes>
        0 -1 1232093 2.7037190273404121e-02</internalNodes>
      <leafValues>
        6.2565520405769348e-02 -8.6488616466522217e-01</leafValues></_>
    <_>
      <internalNodes>
        0 -1 1048987 1.6913187503814697e-01</internalNodes>
      <leafValues>
        -1.2650398910045624e-01 5.1363456249237061e-01</leafValues></_>
    <_>
      <internalNodes>
        0 -1 1303737 6.2717543914914131e-03</internalNodes>
      <leafValues>
        -2.1558006107807159e-01 3.1586948037147522e-01</leafValues></_>
    <_>
      <internalNodes>
        0 -1 343462 -1.1907205043826252e-04</internalNodes>
      <leafValues>
        4.5166191458702087e-01 -1.8898512423038483e-01</leafValues></_>
    <_>
      <internalNodes>
        0 -1 1925260 2.2571189329028130e-03</internalNodes>
      <leafValues>
        1.1071613430976868e-01 -8.1176370382308960e-01</leafValues></_>
    <_>
      <internalNodes>
        0 -1 373356 1.6308082267642021e-02</internalNodes>
      <leafValues>
        -8.6957029998302460e-02 8.3495724201202393e-01</leafValues></_>
    <_>
      <internalNodes>
        0 -1 897252 5.2248694002628326e-02</internalNodes>
      <leafValues>
        -1.4764653146266937e-01 4.7267496585845947e-01</leafValues></_>
    <_>
      <internalNodes>
        0 -1 1234590 -1.5787006122991443e-03</internalNodes>
      <leafValues>
        3.3728444576263428e-01 -2.1940147876739502e-01</leafValues></_>
    <_>
      <internalNodes>
        0 -1 1740194 -7.9549588263034821e-03</internalNodes>
      <leafValues>
        3.6561572551727295e-01 -1.8083187937736511e-01</leafValues></_>
    <_>
      <internalNodes>
        0 -1 886438 5.8395355008542538e-03</internalNodes>
      <leafValues>
        1.1134316772222519e-01 -6.2189400196075439e-01</leafValues></_>
    <_>
      <internalNodes>
        0 -1 1792191 -9.6135810017585754e-03</internalNodes>
      <leafValues>
        -8.1938683986663818e-01 7.3724538087844849e-02</leafValues></_>
    <_>
      <internalNodes>
        0 -1 1965101 9.9065423011779785e-02</internalNodes>
      <leafValues>
        -1.0027359426021576e-01 8.8435745239257813e-01</leafValues></_>
    <_>
      <internalNodes>
        0 -1 1446400 -6.2007643282413483e-03</internalNodes>
      <leafValues>
        -6.5408074855804443e-01 1.2529784440994263e-01</leafValues></_>
    <_>
      <internalNodes>
        0 -1 1692437 3.4344352781772614e-02</internalNodes>
      <leafValues>
        -1.8080909550189972e-01 4.4007152318954468e-01</leafValues></_>
    <_>
      <internalNodes>
        0 -1 368714 -1.3279778882861137e-02</internalNodes>
      <leafValues>
        7.1846681833267212e-01 -1.0141149908304214e-01</leafValues></_>
    <_>
      <internalNodes>
        0 -1 209144 7.1082100272178650e-02</internalNodes>
      <leafValues>
        -1.1665709316730499e-01 5.7582533359527588e-01</leafValues></_>
    <_>
      <internalNodes>
        0 -1 1627611 -2.0782806677743793e-04</internalNodes>
      <leafValues>
        4.7816017270088196e-01 -1.3798522949218750e-01</leafValues></_>
    <_>
      <internalNodes>
        0 -1 1763379 -1.0786972939968109e-02</internalNodes>
      <leafValues>
        4.4269141554832458e-01 -1.7856112122535706e-01</leafValues></_>
    <_>
      <internalNodes>
        0 -1 1170589 1.3060631230473518e-02</internalNodes>
      <leafValues>
        -1.2198362499475479e-01 5.3543972969055176e-01</leafValues></_>
    <_>
      <internalNodes>
        0 -1 45367 6.0618139803409576e-02</internalNodes>
      <leafValues>
        -1.3590940833091736e-01 5.7091385126113892e-01</leafValues></_>
    <_>
      <internalNodes>
        0 -1 1862379 3.1276661902666092e-02</internalNodes>
      <leafValues>
        -7.7506467700004578e-02 7.8715717792510986e-01</leafValues></_>
    <_>
      <internalNodes>
        0 -1 148 3.5287160426378250e-03</internalNodes>
      <leafValues>
        -7.2924725711345673e-02 8.0466210842132568e-01</leafValues></_></weakClassifiers></stage10>
</opencv_storage>
