<?xml version="1.0"?>
<opencv_storage>
<cascade>
  <stageType>BOOST</stageType>
  <featureType>HAAR</featureType>
  <height>40</height>
  <width>40</width>
  <stageParams>
    <boostType>GAB</boostType>
    <minHitRate>9.9500000476837158e-01</minHitRate>
    <maxFalseAlarm>4.0000000596046448e-01</maxFalseAlarm>
    <weightTrimRate>9.4999999999999996e-01</weightTrimRate>
    <maxDepth>1</maxDepth>
    <maxWeakCount>100</maxWeakCount></stageParams>
  <featureParams>
    <maxCatCount>0</maxCatCount>
    <featSize>1</featSize>
    <mode>ALL</mode></featureParams>
  <stageNum>16</stageNum>
  <stages>
    <!-- stage 0 -->
    <_>
      <maxWeakCount>5</maxWeakCount>
      <stageThreshold>-7.0823478698730469e-01</stageThreshold>
      <weakClassifiers>
        <_>
          <internalNodes>
            0 -1 151 2.6572402566671371e-02</internalNodes>
          <leafValues>
            -5.4192227125167847e-01 7.1428573131561279e-01</leafValues></_>
        <_>
          <internalNodes>
            0 -1 153 -2.1686288528144360e-03</internalNodes>
          <leafValues>
            9.0131473541259766e-01 -3.1005999445915222e-01</leafValues></_>
        <_>
          <internalNodes>
            0 -1 135 2.6837994810193777e-03</internalNodes>
          <leafValues>
            -2.6681819558143616e-01 8.5134392976760864e-01</leafValues></_>
        <_>
          <internalNodes>
            0 -1 148 -3.5365154035389423e-03</internalNodes>
          <leafValues>
            9.5578557252883911e-01 -2.6003196835517883e-01</leafValues></_>
        <_>
          <internalNodes>
            0 -1 79 1.2377528473734856e-02</internalNodes>
          <leafValues>
            -2.8611260652542114e-01 6.7059767246246338e-01</leafValues></_></weakClassifiers></_>
    <!-- stage 1 -->
    <_>
      <maxWeakCount>10</maxWeakCount>
      <stageThreshold>-5.8912187814712524e-01</stageThreshold>
      <weakClassifiers>
        <_>
          <internalNodes>
            0 -1 159 1.3214796781539917e-03</internalNodes>
          <leafValues>
            -4.3223443627357483e-01 8.2692307233810425e-01</leafValues></_>
        <_>
          <internalNodes>
            0 -1 177 1.1126295430585742e-03</internalNodes>
          <leafValues>
            -2.2818410396575928e-01 8.0290919542312622e-01</leafValues></_>
        <_>
          <internalNodes>
            0 -1 177 -1.4343627262860537e-03</internalNodes>
          <leafValues>
            9.0165853500366211e-01 -2.6810756325721741e-01</leafValues></_>
        <_>
          <internalNodes>
            0 -1 145 -6.8940280470997095e-04</internalNodes>
          <leafValues>
            7.8672242164611816e-01 -2.2215533256530762e-01</leafValues></_>
        <_>
          <internalNodes>
            0 -1 157 -4.2787129059433937e-03</internalNodes>
          <leafValues>
            8.7006187438964844e-01 -1.5471312403678894e-01</leafValues></_>
        <_>
          <internalNodes>
            0 -1 5 1.1258447542786598e-02</internalNodes>
          <leafValues>
            2.7553841471672058e-01 -7.5436025857925415e-01</leafValues></_>
        <_>
          <internalNodes>
            0 -1 161 -4.4252636143937707e-04</internalNodes>
          <leafValues>
            7.7708768844604492e-01 -2.4585931003093719e-01</leafValues></_>
        <_>
          <internalNodes>
            0 -1 9 1.8343415111303329e-02</internalNodes>
          <leafValues>
            2.9961943626403809e-01 -7.3605573177337646e-01</leafValues></_>
        <_>
          <internalNodes>
            0 -1 162 7.7001639874652028e-04</internalNodes>
          <leafValues>
            -2.7959153056144714e-01 9.3750393390655518e-01</leafValues></_>
        <_>
          <internalNodes>
            0 -1 222 -9.0674380771815777e-05</internalNodes>
          <leafValues>
            6.6656565666198730e-01 -1.9550794363021851e-01</leafValues></_></weakClassifiers></_>
    <!-- stage 2 -->
    <_>
      <maxWeakCount>10</maxWeakCount>
      <stageThreshold>-1.2385203838348389e+00</stageThreshold>
      <weakClassifiers>
        <_>
          <internalNodes>
            0 -1 126 1.4742726925760508e-03</internalNodes>
          <leafValues>
            -4.0180179476737976e-01 7.6842105388641357e-01</leafValues></_>
        <_>
          <internalNodes>
            0 -1 126 -1.6103733796626329e-03</internalNodes>
          <leafValues>
            8.2348197698593140e-01 -2.1534065902233124e-01</leafValues></_>
        <_>
          <internalNodes>
            0 -1 83 4.3658044189214706e-02</internalNodes>
          <leafValues>
            -4.1889601945877075e-01 4.3543645739555359e-01</leafValues></_>
        <_>
          <internalNodes>
            0 -1 12 -2.8684904798865318e-02</internalNodes>
          <leafValues>
            -7.7890056371688843e-01 2.2328048944473267e-01</leafValues></_>
        <_>
          <internalNodes>
            0 -1 112 -1.2183883227407932e-03</internalNodes>
          <leafValues>
            8.0559819936752319e-01 -1.8720515072345734e-01</leafValues></_>
        <_>
          <internalNodes>
            0 -1 210 1.7445231787860394e-03</internalNodes>
          <leafValues>
            -1.6696989536285400e-01 9.0430796146392822e-01</leafValues></_>
        <_>
          <internalNodes>
            0 -1 125 -1.0442804777994752e-03</internalNodes>
          <leafValues>
            7.6576012372970581e-01 -1.6445353627204895e-01</leafValues></_>
        <_>
          <internalNodes>
            0 -1 231 3.0738888308405876e-03</internalNodes>
          <leafValues>
            2.2097650170326233e-01 -7.8191012144088745e-01</leafValues></_>
        <_>
          <internalNodes>
            0 -1 122 9.7341625951230526e-04</internalNodes>
          <leafValues>
            -1.5215219557285309e-01 8.9958709478378296e-01</leafValues></_>
        <_>
          <internalNodes>
            0 -1 175 -3.7109205732122064e-04</internalNodes>
          <leafValues>
            8.3139443397521973e-01 -1.4329436421394348e-01</leafValues></_></weakClassifiers></_>
    <!-- stage 3 -->
    <_>
      <maxWeakCount>10</maxWeakCount>
      <stageThreshold>-1.1039440631866455e+00</stageThreshold>
      <weakClassifiers>
        <_>
          <internalNodes>
            0 -1 176 -1.6091957688331604e-02</internalNodes>
          <leafValues>
            7.2043013572692871e-01 -3.8958707451820374e-01</leafValues></_>
        <_>
          <internalNodes>
            0 -1 97 3.8458339869976044e-02</internalNodes>
          <leafValues>
            -4.9043706059455872e-01 3.1628784537315369e-01</leafValues></_>
        <_>
          <internalNodes>
            0 -1 137 5.6963050737977028e-03</internalNodes>
          <leafValues>
            -2.2898721694946289e-01 7.2773981094360352e-01</leafValues></_>
        <_>
          <internalNodes>
            0 -1 111 1.4607874909415841e-03</internalNodes>
          <leafValues>
            -1.4023479819297791e-01 7.1235752105712891e-01</leafValues></_>
        <_>
          <internalNodes>
            0 -1 172 1.1428628349676728e-03</internalNodes>
          <leafValues>
            -2.1002131700515747e-01 6.1529135704040527e-01</leafValues></_>
        <_>
          <internalNodes>
            0 -1 101 1.8543176352977753e-02</internalNodes>
          <leafValues>
            -1.3801626861095428e-01 8.3932232856750488e-01</leafValues></_>
        <_>
          <internalNodes>
            0 -1 123 2.2570626810193062e-02</internalNodes>
          <leafValues>
            -1.6607804596424103e-01 6.8149584531784058e-01</leafValues></_>
        <_>
          <internalNodes>
            0 -1 124 -1.5163944335654378e-03</internalNodes>
          <leafValues>
            6.5424162149429321e-01 -1.8192747235298157e-01</leafValues></_>
        <_>
          <internalNodes>
            0 -1 39 1.1400686344131827e-04</internalNodes>
          <leafValues>
            1.8824002146720886e-01 -7.2226059436798096e-01</leafValues></_>
        <_>
          <internalNodes>
            0 -1 140 -9.6594356000423431e-04</internalNodes>
          <leafValues>
            6.4878112077713013e-01 -1.9948710501194000e-01</leafValues></_></weakClassifiers></_>
    <!-- stage 4 -->
    <_>
      <maxWeakCount>13</maxWeakCount>
      <stageThreshold>-9.4759994745254517e-01</stageThreshold>
      <weakClassifiers>
        <_>
          <internalNodes>
            0 -1 56 7.8842066228389740e-02</internalNodes>
          <leafValues>
            -5.3645831346511841e-01 2.1052631735801697e-01</leafValues></_>
        <_>
          <internalNodes>
            0 -1 23 6.5464358776807785e-03</internalNodes>
          <leafValues>
            1.2350284308195114e-01 -7.7162420749664307e-01</leafValues></_>
        <_>
          <internalNodes>
            0 -1 31 1.3067653635516763e-03</internalNodes>
          <leafValues>
            2.2394220530986786e-01 -5.3216671943664551e-01</leafValues></_>
        <_>
          <internalNodes>
            0 -1 119 3.1533073633909225e-02</internalNodes>
          <leafValues>
            -3.7680763006210327e-01 2.9405078291893005e-01</leafValues></_>
        <_>
          <internalNodes>
            0 -1 78 -1.7873796168714762e-03</internalNodes>
          <leafValues>
            4.7285857796669006e-01 -2.1134664118289948e-01</leafValues></_>
        <_>
          <internalNodes>
            0 -1 48 4.2992442846298218e-02</internalNodes>
          <leafValues>
            -1.5385432541370392e-01 7.2793108224868774e-01</leafValues></_>
        <_>
          <internalNodes>
            0 -1 196 -3.6989143118262291e-03</internalNodes>
          <leafValues>
            5.9868943691253662e-01 -1.7837516963481903e-01</leafValues></_>
        <_>
          <internalNodes>
            0 -1 85 1.7533260397613049e-03</internalNodes>
          <leafValues>
            -1.1504846811294556e-01 7.0909279584884644e-01</leafValues></_>
        <_>
          <internalNodes>
            0 -1 14 -4.5348331332206726e-03</internalNodes>
          <leafValues>
            -6.6051197052001953e-01 1.8306671082973480e-01</leafValues></_>
        <_>
          <internalNodes>
            0 -1 33 -3.8023508386686444e-04</internalNodes>
          <leafValues>
            -7.5592422485351563e-01 1.1463367193937302e-01</leafValues></_>
        <_>
          <internalNodes>
            0 -1 184 4.3893363326787949e-03</internalNodes>
          <leafValues>
            -1.7810870707035065e-01 5.8077710866928101e-01</leafValues></_>
        <_>
          <internalNodes>
            0 -1 228 1.0213851055596024e-04</internalNodes>
          <leafValues>
            1.4699837565422058e-01 -7.0853769779205322e-01</leafValues></_>
        <_>
          <internalNodes>
            0 -1 61 -4.2474353685975075e-03</internalNodes>
          <leafValues>
            -5.3745794296264648e-01 1.6962894797325134e-01</leafValues></_></weakClassifiers></_>
    <!-- stage 5 -->
    <_>
      <maxWeakCount>12</maxWeakCount>
      <stageThreshold>-1.0173147916793823e+00</stageThreshold>
      <weakClassifiers>
        <_>
          <internalNodes>
            0 -1 86 5.4904893040657043e-03</internalNodes>
          <leafValues>
            -3.5842293500900269e-01 5.4347825050354004e-01</leafValues></_>
        <_>
          <internalNodes>
            0 -1 47 -3.6015082150697708e-03</internalNodes>
          <leafValues>
            -6.9203788042068481e-01 1.4509773254394531e-01</leafValues></_>
        <_>
          <internalNodes>
            0 -1 209 -2.2243119776248932e-02</internalNodes>
          <leafValues>
            6.5555286407470703e-01 -1.7702819406986237e-01</leafValues></_>
        <_>
          <internalNodes>
            0 -1 42 4.0120165795087814e-03</internalNodes>
          <leafValues>
            1.8352569639682770e-01 -6.1505210399627686e-01</leafValues></_>
        <_>
          <internalNodes>
            0 -1 160 -1.2040566653013229e-03</internalNodes>
          <leafValues>
            2.5165089964866638e-01 -4.4783991575241089e-01</leafValues></_>
        <_>
          <internalNodes>
            0 -1 49 -1.5699905343353748e-03</internalNodes>
          <leafValues>
            9.0860503911972046e-01 -9.3327172100543976e-02</leafValues></_>
        <_>
          <internalNodes>
            0 -1 38 4.5626768842339516e-03</internalNodes>
          <leafValues>
            -4.7041988372802734e-01 2.5358024239540100e-01</leafValues></_>
        <_>
          <internalNodes>
            0 -1 136 -2.6856178883463144e-03</internalNodes>
          <leafValues>
            7.9027402400970459e-01 -1.4777214825153351e-01</leafValues></_>
        <_>
          <internalNodes>
            0 -1 188 -7.7649758895859122e-04</internalNodes>
          <leafValues>
            -6.9506543874740601e-01 1.8382707238197327e-01</leafValues></_>
        <_>
          <internalNodes>
            0 -1 17 -1.6037144814617932e-04</internalNodes>
          <leafValues>
            -4.5441284775733948e-01 2.0752248167991638e-01</leafValues></_>
        <_>
          <internalNodes>
            0 -1 169 -1.5889188507571816e-03</internalNodes>
          <leafValues>
            4.3851622939109802e-01 -2.3062503337860107e-01</leafValues></_>
        <_>
          <internalNodes>
            0 -1 226 7.3766149580478668e-04</internalNodes>
          <leafValues>
            2.2516973316669464e-01 -4.4570547342300415e-01</leafValues></_></weakClassifiers></_>
    <!-- stage 6 -->
    <_>
      <maxWeakCount>15</maxWeakCount>
      <stageThreshold>-9.5548892021179199e-01</stageThreshold>
      <weakClassifiers>
        <_>
          <internalNodes>
            0 -1 150 -8.7307877838611603e-03</internalNodes>
          <leafValues>
            9.1304349899291992e-01 -3.1788080930709839e-01</leafValues></_>
        <_>
          <internalNodes>
            0 -1 138 -5.9409625828266144e-04</internalNodes>
          <leafValues>
            8.7868028879165649e-01 -1.2404748052358627e-01</leafValues></_>
        <_>
          <internalNodes>
            0 -1 144 3.2011575996875763e-02</internalNodes>
          <leafValues>
            -3.6260038614273071e-01 2.8579974174499512e-01</leafValues></_>
        <_>
          <internalNodes>
            0 -1 202 4.3043028563261032e-03</internalNodes>
          <leafValues>
            -1.7428050935268402e-01 5.7581984996795654e-01</leafValues></_>
        <_>
          <internalNodes>
            0 -1 224 -1.2083603069186211e-03</internalNodes>
          <leafValues>
            -5.4088360071182251e-01 2.1280789375305176e-01</leafValues></_>
        <_>
          <internalNodes>
            0 -1 2 -3.3082906156778336e-03</internalNodes>
          <leafValues>
            -5.6800144910812378e-01 1.8559496104717255e-01</leafValues></_>
        <_>
          <internalNodes>
            0 -1 103 -9.0502877719700336e-04</internalNodes>
          <leafValues>
            7.7502107620239258e-01 -1.2288257479667664e-01</leafValues></_>
        <_>
          <internalNodes>
            0 -1 106 -1.9091321155428886e-03</internalNodes>
          <leafValues>
            7.5464868545532227e-01 -1.2963870167732239e-01</leafValues></_>
        <_>
          <internalNodes>
            0 -1 75 -3.9623416960239410e-03</internalNodes>
          <leafValues>
            6.2347537279129028e-01 -1.5598344802856445e-01</leafValues></_>
        <_>
          <internalNodes>
            0 -1 65 -7.9842880368232727e-03</internalNodes>
          <leafValues>
            7.4576586484909058e-01 -1.4366228878498077e-01</leafValues></_>
        <_>
          <internalNodes>
            0 -1 212 1.0454102884978056e-03</internalNodes>
          <leafValues>
            -1.0698527842760086e-01 7.8224730491638184e-01</leafValues></_>
        <_>
          <internalNodes>
            0 -1 30 -6.1359920073300600e-04</internalNodes>
          <leafValues>
            -5.0665587186813354e-01 2.0066989958286285e-01</leafValues></_>
        <_>
          <internalNodes>
            0 -1 134 4.6069696545600891e-03</internalNodes>
          <leafValues>
            -1.4191502332687378e-01 6.2043666839599609e-01</leafValues></_>
        <_>
          <internalNodes>
            0 -1 53 -8.1592239439487457e-03</internalNodes>
          <leafValues>
            6.5117824077606201e-01 -1.4487214386463165e-01</leafValues></_>
        <_>
          <internalNodes>
            0 -1 132 7.9021046985872090e-05</internalNodes>
          <leafValues>
            -2.7821320295333862e-01 3.5737937688827515e-01</leafValues></_></weakClassifiers></_>
    <!-- stage 7 -->
    <_>
      <maxWeakCount>16</maxWeakCount>
      <stageThreshold>-8.3956664800643921e-01</stageThreshold>
      <weakClassifiers>
        <_>
          <internalNodes>
            0 -1 118 2.7599543333053589e-02</internalNodes>
          <leafValues>
            -3.6346516013145447e-01 3.6134454607963562e-01</leafValues></_>
        <_>
          <internalNodes>
            0 -1 128 -7.3241832433268428e-04</internalNodes>
          <leafValues>
            5.3156924247741699e-01 -1.4445751905441284e-01</leafValues></_>
        <_>
          <internalNodes>
            0 -1 81 -2.4545818567276001e-02</internalNodes>
          <leafValues>
            -9.6465301513671875e-01 7.5454734265804291e-02</leafValues></_>
        <_>
          <internalNodes>
            0 -1 117 -1.8676046282052994e-02</internalNodes>
          <leafValues>
            6.5793389081954956e-01 -1.2168817967176437e-01</leafValues></_>
        <_>
          <internalNodes>
            0 -1 193 8.9619820937514305e-03</internalNodes>
          <leafValues>
            -1.7558474838733673e-01 4.8778477311134338e-01</leafValues></_>
        <_>
          <internalNodes>
            0 -1 105 -3.5378499887883663e-03</internalNodes>
          <leafValues>
            2.1014720201492310e-01 -4.3616566061973572e-01</leafValues></_>
        <_>
          <internalNodes>
            0 -1 141 -5.5630072951316833e-02</internalNodes>
          <leafValues>
            -7.5651991367340088e-01 1.0918679833412170e-01</leafValues></_>
        <_>
          <internalNodes>
            0 -1 197 -1.7092777416110039e-02</internalNodes>
          <leafValues>
            4.0106004476547241e-01 -2.2944597899913788e-01</leafValues></_>
        <_>
          <internalNodes>
            0 -1 113 -2.7795636560767889e-03</internalNodes>
          <leafValues>
            5.9778821468353271e-01 -1.7114306986331940e-01</leafValues></_>
        <_>
          <internalNodes>
            0 -1 146 4.1714804247021675e-03</internalNodes>
          <leafValues>
            -8.2251429557800293e-02 7.3464578390121460e-01</leafValues></_>
        <_>
          <internalNodes>
            0 -1 207 -1.6981817316263914e-03</internalNodes>
          <leafValues>
            -7.5079232454299927e-01 1.1753908544778824e-01</leafValues></_>
        <_>
          <internalNodes>
            0 -1 178 1.0510085849091411e-03</internalNodes>
          <leafValues>
            -2.2099731862545013e-01 4.8901164531707764e-01</leafValues></_>
        <_>
          <internalNodes>
            0 -1 71 2.9047685675323009e-03</internalNodes>
          <leafValues>
            -1.3479097187519073e-01 5.7601046562194824e-01</leafValues></_>
        <_>
          <internalNodes>
            0 -1 18 -1.2438199482858181e-03</internalNodes>
          <leafValues>
            -8.4394860267639160e-01 8.9718624949455261e-02</leafValues></_>
        <_>
          <internalNodes>
            0 -1 139 -2.4920250289142132e-03</internalNodes>
          <leafValues>
            8.4364849328994751e-01 -1.1949930340051651e-01</leafValues></_>
        <_>
          <internalNodes>
            0 -1 166 6.6617508418858051e-03</internalNodes>
          <leafValues>
            -8.5929669439792633e-02 7.4972563982009888e-01</leafValues></_></weakClassifiers></_>
    <!-- stage 8 -->
    <_>
      <maxWeakCount>19</maxWeakCount>
      <stageThreshold>-9.0253633260726929e-01</stageThreshold>
      <weakClassifiers>
        <_>
          <internalNodes>
            0 -1 90 3.8284778594970703e-02</internalNodes>
          <leafValues>
            -5.1315790414810181e-01 1.7341040074825287e-02</leafValues></_>
        <_>
          <internalNodes>
            0 -1 232 -2.9510603053495288e-04</internalNodes>
          <leafValues>
            -5.0172919034957886e-01 1.4885686337947845e-01</leafValues></_>
        <_>
          <internalNodes>
            0 -1 66 5.4611880332231522e-03</internalNodes>
          <leafValues>
            -1.6601830720901489e-01 4.0781158208847046e-01</leafValues></_>
        <_>
          <internalNodes>
            0 -1 92 -2.6606428436934948e-03</internalNodes>
          <leafValues>
            3.9640650153160095e-01 -2.0677648484706879e-01</leafValues></_>
        <_>
          <internalNodes>
            0 -1 99 1.2613998726010323e-02</internalNodes>
          <leafValues>
            -1.9560840725898743e-01 4.1807183623313904e-01</leafValues></_>
        <_>
          <internalNodes>
            0 -1 7 -6.3549680635333061e-03</internalNodes>
          <leafValues>
            -5.6314808130264282e-01 1.6444091498851776e-01</leafValues></_>
        <_>
          <internalNodes>
            0 -1 100 -1.0796759743243456e-03</internalNodes>
          <leafValues>
            4.2738521099090576e-01 -2.1233375370502472e-01</leafValues></_>
        <_>
          <internalNodes>
            0 -1 179 1.1410102015361190e-03</internalNodes>
          <leafValues>
            -1.2574034929275513e-01 4.8404949903488159e-01</leafValues></_>
        <_>
          <internalNodes>
            0 -1 170 -4.5171026140451431e-02</internalNodes>
          <leafValues>
            8.9666062593460083e-01 -9.3852870166301727e-02</leafValues></_>
        <_>
          <internalNodes>
            0 -1 70 1.6349188983440399e-02</internalNodes>
          <leafValues>
            -2.6420295238494873e-01 3.1091019511222839e-01</leafValues></_>
        <_>
          <internalNodes>
            0 -1 183 5.4509460460394621e-04</internalNodes>
          <leafValues>
            -1.6906526684761047e-01 5.3286451101303101e-01</leafValues></_>
        <_>
          <internalNodes>
            0 -1 13 -1.6410633921623230e-02</internalNodes>
          <leafValues>
            -3.2520467042922974e-01 2.3780480027198792e-01</leafValues></_>
        <_>
          <internalNodes>
            0 -1 93 1.2648415286093950e-03</internalNodes>
          <leafValues>
            -8.5329189896583557e-02 7.8200852870941162e-01</leafValues></_>
        <_>
          <internalNodes>
            0 -1 57 1.4709443785250187e-03</internalNodes>
          <leafValues>
            1.1729685217142105e-01 -7.8330600261688232e-01</leafValues></_>
        <_>
          <internalNodes>
            0 -1 221 6.7771750036627054e-04</internalNodes>
          <leafValues>
            -2.1442173421382904e-01 4.0179687738418579e-01</leafValues></_>
        <_>
          <internalNodes>
            0 -1 40 -1.4559333794750273e-04</internalNodes>
          <leafValues>
            -5.6334370374679565e-01 1.6660743951797485e-01</leafValues></_>
        <_>
          <internalNodes>
            0 -1 80 -2.6894044131040573e-03</internalNodes>
          <leafValues>
            6.3806742429733276e-01 -1.5600046515464783e-01</leafValues></_>
        <_>
          <internalNodes>
            0 -1 189 -2.3224041797220707e-03</internalNodes>
          <leafValues>
            3.2355663180351257e-01 -2.6345720887184143e-01</leafValues></_>
        <_>
          <internalNodes>
            0 -1 198 -5.1207235082983971e-04</internalNodes>
          <leafValues>
            3.4192642569541931e-01 -2.6838198304176331e-01</leafValues></_></weakClassifiers></_>
    <!-- stage 9 -->
    <_>
      <maxWeakCount>17</maxWeakCount>
      <stageThreshold>-1.0043973922729492e+00</stageThreshold>
      <weakClassifiers>
        <_>
          <internalNodes>
            0 -1 211 8.6794849485158920e-03</internalNodes>
          <leafValues>
            -3.3215546607971191e-01 4.5238095521926880e-01</leafValues></_>
        <_>
          <internalNodes>
            0 -1 1 -7.4714240618050098e-03</internalNodes>
          <leafValues>
            -6.7659527063369751e-01 1.0692150145769119e-01</leafValues></_>
        <_>
          <internalNodes>
            0 -1 0 2.9523333068937063e-03</internalNodes>
          <leafValues>
            7.3653057217597961e-02 -7.8328222036361694e-01</leafValues></_>
        <_>
          <internalNodes>
            0 -1 168 -5.5973790585994720e-04</internalNodes>
          <leafValues>
            5.3967750072479248e-01 -1.2023700028657913e-01</leafValues></_>
        <_>
          <internalNodes>
            0 -1 6 2.1750722080469131e-03</internalNodes>
          <leafValues>
            1.3684956729412079e-01 -5.0723320245742798e-01</leafValues></_>
        <_>
          <internalNodes>
            0 -1 206 -2.3343246430158615e-02</internalNodes>
          <leafValues>
            -4.1954001784324646e-01 1.9269238412380219e-01</leafValues></_>
        <_>
          <internalNodes>
            0 -1 213 -1.0153790935873985e-03</internalNodes>
          <leafValues>
            -5.1703286170959473e-01 1.4029908180236816e-01</leafValues></_>
        <_>
          <internalNodes>
            0 -1 74 1.8695348408073187e-03</internalNodes>
          <leafValues>
            -1.9166277348995209e-01 4.5399540662765503e-01</leafValues></_>
        <_>
          <internalNodes>
            0 -1 77 1.1787326075136662e-03</internalNodes>
          <leafValues>
            -1.6377925872802734e-01 5.0935173034667969e-01</leafValues></_>
        <_>
          <internalNodes>
            0 -1 34 1.7170755891129375e-03</internalNodes>
          <leafValues>
            1.3720297813415527e-01 -7.2396886348724365e-01</leafValues></_>
        <_>
          <internalNodes>
            0 -1 133 -1.7660167068243027e-03</internalNodes>
          <leafValues>
            6.2189877033233643e-01 -1.5812307596206665e-01</leafValues></_>
        <_>
          <internalNodes>
            0 -1 108 2.2863492369651794e-02</internalNodes>
          <leafValues>
            -3.2248854637145996e-01 2.7123388648033142e-01</leafValues></_>
        <_>
          <internalNodes>
            0 -1 22 1.9570272415876389e-03</internalNodes>
          <leafValues>
            -2.3434974253177643e-01 4.1189423203468323e-01</leafValues></_>
        <_>
          <internalNodes>
            0 -1 180 -8.5515843238681555e-04</internalNodes>
          <leafValues>
            -8.5324281454086304e-01 1.2887293100357056e-01</leafValues></_>
        <_>
          <internalNodes>
            0 -1 174 -2.3622117005288601e-03</internalNodes>
          <leafValues>
            -8.5739493370056152e-01 6.5164886415004730e-02</leafValues></_>
        <_>
          <internalNodes>
            0 -1 215 4.6575580199714750e-05</internalNodes>
          <leafValues>
            -2.9706588387489319e-01 2.6640546321868896e-01</leafValues></_>
        <_>
          <internalNodes>
            0 -1 155 -1.2055378407239914e-02</internalNodes>
          <leafValues>
            4.4446498155593872e-01 -1.8082332611083984e-01</leafValues></_></weakClassifiers></_>
    <!-- stage 10 -->
    <_>
      <maxWeakCount>17</maxWeakCount>
      <stageThreshold>-8.8082021474838257e-01</stageThreshold>
      <weakClassifiers>
        <_>
          <internalNodes>
            0 -1 167 -2.3737188894301653e-04</internalNodes>
          <leafValues>
            3.5135135054588318e-01 -3.5064935684204102e-01</leafValues></_>
        <_>
          <internalNodes>
            0 -1 45 8.3166435360908508e-03</internalNodes>
          <leafValues>
            -1.3007262349128723e-01 5.8527070283889771e-01</leafValues></_>
        <_>
          <internalNodes>
            0 -1 104 3.0777346342802048e-02</internalNodes>
          <leafValues>
            -1.1250659078359604e-01 5.6870323419570923e-01</leafValues></_>
        <_>
          <internalNodes>
            0 -1 164 -3.1810638029128313e-04</internalNodes>
          <leafValues>
            5.0209659337997437e-01 -1.5808373689651489e-01</leafValues></_>
        <_>
          <internalNodes>
            0 -1 16 -1.2870589271187782e-03</internalNodes>
          <leafValues>
            -6.5587949752807617e-01 1.3976784050464630e-01</leafValues></_>
        <_>
          <internalNodes>
            0 -1 142 -4.6504801139235497e-04</internalNodes>
          <leafValues>
            3.8224139809608459e-01 -1.8302075564861298e-01</leafValues></_>
        <_>
          <internalNodes>
            0 -1 19 -1.0108421556651592e-03</internalNodes>
          <leafValues>
            -6.6049605607986450e-01 1.1714477092027664e-01</leafValues></_>
        <_>
          <internalNodes>
            0 -1 64 1.4071317855268717e-03</internalNodes>
          <leafValues>
            -1.5213584899902344e-01 4.7289457917213440e-01</leafValues></_>
        <_>
          <internalNodes>
            0 -1 190 -1.1070620268583298e-02</internalNodes>
          <leafValues>
            -7.5598114728927612e-01 8.5792712867259979e-02</leafValues></_>
        <_>
          <internalNodes>
            0 -1 185 -9.2947040684521198e-04</internalNodes>
          <leafValues>
            3.9814755320549011e-01 -2.0165607333183289e-01</leafValues></_>
        <_>
          <internalNodes>
            0 -1 171 -7.8638233244419098e-03</internalNodes>
          <leafValues>
            6.2600779533386230e-01 -1.3592971861362457e-01</leafValues></_>
        <_>
          <internalNodes>
            0 -1 36 -2.2163636982440948e-02</internalNodes>
          <leafValues>
            -6.0208564996719360e-01 1.4636370539665222e-01</leafValues></_>
        <_>
          <internalNodes>
            0 -1 60 4.7994903288781643e-03</internalNodes>
          <leafValues>
            -1.1364403367042542e-01 6.4370805025100708e-01</leafValues></_>
        <_>
          <internalNodes>
            0 -1 187 -3.4621956292539835e-03</internalNodes>
          <leafValues>
            2.5257340073585510e-01 -3.1660786271095276e-01</leafValues></_>
        <_>
          <internalNodes>
            0 -1 72 1.5509974211454391e-02</internalNodes>
          <leafValues>
            -2.4342285096645355e-01 3.7384554743766785e-01</leafValues></_>
        <_>
          <internalNodes>
            0 -1 88 3.1290334300138056e-04</internalNodes>
          <leafValues>
            -1.1325182020664215e-01 7.9864108562469482e-01</leafValues></_>
        <_>
          <internalNodes>
            0 -1 11 4.2422786355018616e-03</internalNodes>
          <leafValues>
            2.1606156229972839e-01 -4.4405660033226013e-01</leafValues></_></weakClassifiers></_>
    <!-- stage 11 -->
    <_>
      <maxWeakCount>20</maxWeakCount>
      <stageThreshold>-9.8519098758697510e-01</stageThreshold>
      <weakClassifiers>
        <_>
          <internalNodes>
            0 -1 158 -3.1231176108121872e-03</internalNodes>
          <leafValues>
            5.4545456171035767e-01 -3.1849315762519836e-01</leafValues></_>
        <_>
          <internalNodes>
            0 -1 152 8.3525013178586960e-03</internalNodes>
          <leafValues>
            -1.8494485318660736e-01 5.3737741708755493e-01</leafValues></_>
        <_>
          <internalNodes>
            0 -1 43 -1.1656425893306732e-02</internalNodes>
          <leafValues>
            -4.8495948314666748e-01 1.8846546113491058e-01</leafValues></_>
        <_>
          <internalNodes>
            0 -1 87 -2.8366311453282833e-03</internalNodes>
          <leafValues>
            5.1183056831359863e-01 -1.4378997683525085e-01</leafValues></_>
        <_>
          <internalNodes>
            0 -1 173 5.3357351571321487e-03</internalNodes>
          <leafValues>
            -1.1914595961570740e-01 5.7075023651123047e-01</leafValues></_>
        <_>
          <internalNodes>
            0 -1 41 -2.0337244495749474e-03</internalNodes>
          <leafValues>
            -4.3257829546928406e-01 2.0421016216278076e-01</leafValues></_>
        <_>
          <internalNodes>
            0 -1 95 7.3148077353835106e-03</internalNodes>
          <leafValues>
            -3.0571937561035156e-01 2.3986044526100159e-01</leafValues></_>
        <_>
          <internalNodes>
            0 -1 120 -2.0012461754959077e-04</internalNodes>
          <leafValues>
            -4.6459197998046875e-01 1.8694324791431427e-01</leafValues></_>
        <_>
          <internalNodes>
            0 -1 98 8.9979544281959534e-03</internalNodes>
          <leafValues>
            -2.0110438764095306e-01 3.6408445239067078e-01</leafValues></_>
        <_>
          <internalNodes>
            0 -1 156 -1.4953028410673141e-02</internalNodes>
          <leafValues>
            7.6971107721328735e-01 -9.9067814648151398e-02</leafValues></_>
        <_>
          <internalNodes>
            0 -1 29 -7.1346168406307697e-03</internalNodes>
          <leafValues>
            4.1541925072669983e-01 -1.6781538724899292e-01</leafValues></_>
        <_>
          <internalNodes>
            0 -1 96 1.2694028019905090e-01</internalNodes>
          <leafValues>
            -2.0741102099418640e-01 3.6398580670356750e-01</leafValues></_>
        <_>
          <internalNodes>
            0 -1 102 4.3674781918525696e-03</internalNodes>
          <leafValues>
            -1.8101485073566437e-01 4.1567870974540710e-01</leafValues></_>
        <_>
          <internalNodes>
            0 -1 50 1.5793265774846077e-03</internalNodes>
          <leafValues>
            -1.2924425303936005e-01 5.6938779354095459e-01</leafValues></_>
        <_>
          <internalNodes>
            0 -1 203 2.7060508728027344e-03</internalNodes>
          <leafValues>
            -8.0649316310882568e-02 7.7567559480667114e-01</leafValues></_>
        <_>
          <internalNodes>
            0 -1 181 -1.4779748395085335e-02</internalNodes>
          <leafValues>
            5.3048169612884521e-01 -1.2779095768928528e-01</leafValues></_>
        <_>
          <internalNodes>
            0 -1 51 -1.9035578588955104e-05</internalNodes>
          <leafValues>
            3.4591463208198547e-01 -2.1069496870040894e-01</leafValues></_>
        <_>
          <internalNodes>
            0 -1 116 -1.4957803068682551e-04</internalNodes>
          <leafValues>
            2.9718518257141113e-01 -2.5440841913223267e-01</leafValues></_>
        <_>
          <internalNodes>
            0 -1 216 -1.1053290218114853e-03</internalNodes>
          <leafValues>
            8.9022314548492432e-01 -8.6365565657615662e-02</leafValues></_>
        <_>
          <internalNodes>
            0 -1 199 1.5947064384818077e-03</internalNodes>
          <leafValues>
            -1.5706695616245270e-01 4.5023953914642334e-01</leafValues></_></weakClassifiers></_>
    <!-- stage 12 -->
    <_>
      <maxWeakCount>19</maxWeakCount>
      <stageThreshold>-7.1321421861648560e-01</stageThreshold>
      <weakClassifiers>
        <_>
          <internalNodes>
            0 -1 143 -1.9562102388590574e-03</internalNodes>
          <leafValues>
            7.6190477609634399e-01 -2.9934209585189819e-01</leafValues></_>
        <_>
          <internalNodes>
            0 -1 154 -1.4832285232841969e-03</internalNodes>
          <leafValues>
            3.8385617733001709e-01 -2.1808162331581116e-01</leafValues></_>
        <_>
          <internalNodes>
            0 -1 233 -7.0328223519027233e-03</internalNodes>
          <leafValues>
            -8.6072176694869995e-01 8.8369779288768768e-02</leafValues></_>
        <_>
          <internalNodes>
            0 -1 127 4.7939317300915718e-03</internalNodes>
          <leafValues>
            -1.1824467778205872e-01 4.5091757178306580e-01</leafValues></_>
        <_>
          <internalNodes>
            0 -1 149 1.0132617317140102e-03</internalNodes>
          <leafValues>
            -9.9184498190879822e-02 6.3892889022827148e-01</leafValues></_>
        <_>
          <internalNodes>
            0 -1 218 -2.2671595215797424e-03</internalNodes>
          <leafValues>
            -6.5536105632781982e-01 1.1358273029327393e-01</leafValues></_>
        <_>
          <internalNodes>
            0 -1 35 -3.4990352578461170e-03</internalNodes>
          <leafValues>
            -4.3449100852012634e-01 1.6618952155113220e-01</leafValues></_>
        <_>
          <internalNodes>
            0 -1 4 -1.5516147948801517e-02</internalNodes>
          <leafValues>
            -5.8794182538986206e-01 1.3927894830703735e-01</leafValues></_>
        <_>
          <internalNodes>
            0 -1 28 1.3300616046763025e-05</internalNodes>
          <leafValues>
            -2.4889244139194489e-01 2.8842923045158386e-01</leafValues></_>
        <_>
          <internalNodes>
            0 -1 191 4.6635176986455917e-03</internalNodes>
          <leafValues>
            -1.7226928472518921e-01 4.1206189990043640e-01</leafValues></_>
        <_>
          <internalNodes>
            0 -1 186 -9.2256087809801102e-03</internalNodes>
          <leafValues>
            5.7489782571792603e-01 -1.2272500246763229e-01</leafValues></_>
        <_>
          <internalNodes>
            0 -1 73 -8.2577718421816826e-03</internalNodes>
          <leafValues>
            3.7025740742683411e-01 -1.9961373507976532e-01</leafValues></_>
        <_>
          <internalNodes>
            0 -1 195 2.0453208126127720e-03</internalNodes>
          <leafValues>
            2.6440209150314331e-01 -3.0798310041427612e-01</leafValues></_>
        <_>
          <internalNodes>
            0 -1 46 -2.5253277271986008e-03</internalNodes>
          <leafValues>
            4.4623404741287231e-01 -1.8807169795036316e-01</leafValues></_>
        <_>
          <internalNodes>
            0 -1 58 1.0169538855552673e-01</internalNodes>
          <leafValues>
            -2.0291611552238464e-01 4.5039916038513184e-01</leafValues></_>
        <_>
          <internalNodes>
            0 -1 107 -6.1416882090270519e-05</internalNodes>
          <leafValues>
            3.1840345263481140e-01 -2.5816035270690918e-01</leafValues></_>
        <_>
          <internalNodes>
            0 -1 223 6.3545589910063427e-06</internalNodes>
          <leafValues>
            -2.5928139686584473e-01 3.2431042194366455e-01</leafValues></_>
        <_>
          <internalNodes>
            0 -1 234 -1.5706261619925499e-03</internalNodes>
          <leafValues>
            -4.7214329242706299e-01 1.6266541182994843e-01</leafValues></_>
        <_>
          <internalNodes>
            0 -1 8 1.1611122172325850e-03</internalNodes>
          <leafValues>
            2.0175860822200775e-01 -3.8414800167083740e-01</leafValues></_></weakClassifiers></_>
    <!-- stage 13 -->
    <_>
      <maxWeakCount>18</maxWeakCount>
      <stageThreshold>-8.0387377738952637e-01</stageThreshold>
      <weakClassifiers>
        <_>
          <internalNodes>
            0 -1 69 -1.7116582021117210e-02</internalNodes>
          <leafValues>
            5.9183675050735474e-01 -2.9783692955970764e-01</leafValues></_>
        <_>
          <internalNodes>
            0 -1 94 1.5452343504875898e-03</internalNodes>
          <leafValues>
            -2.0730341970920563e-01 3.4232911467552185e-01</leafValues></_>
        <_>
          <internalNodes>
            0 -1 3 1.7092584166675806e-03</internalNodes>
          <leafValues>
            1.2230832129716873e-01 -6.9989931583404541e-01</leafValues></_>
        <_>
          <internalNodes>
            0 -1 163 3.9687063544988632e-03</internalNodes>
          <leafValues>
            -1.1450171470642090e-01 4.5146214962005615e-01</leafValues></_>
        <_>
          <internalNodes>
            0 -1 204 1.3091133441776037e-03</internalNodes>
          <leafValues>
            -3.6038380861282349e-01 1.8474321067333221e-01</leafValues></_>
        <_>
          <internalNodes>
            0 -1 219 -4.9468185752630234e-03</internalNodes>
          <leafValues>
            4.6241939067840576e-01 -1.5894158184528351e-01</leafValues></_>
        <_>
          <internalNodes>
            0 -1 121 2.1600550971925259e-03</internalNodes>
          <leafValues>
            -1.4526139199733734e-01 4.9239394068717957e-01</leafValues></_>
        <_>
          <internalNodes>
            0 -1 54 1.1055152863264084e-02</internalNodes>
          <leafValues>
            -1.2640434503555298e-01 4.7802746295928955e-01</leafValues></_>
        <_>
          <internalNodes>
            0 -1 44 1.2789519503712654e-02</internalNodes>
          <leafValues>
            1.8956708908081055e-01 -3.9765533804893494e-01</leafValues></_>
        <_>
          <internalNodes>
            0 -1 68 -1.9391111563891172e-03</internalNodes>
          <leafValues>
            4.4313588738441467e-01 -1.8125872313976288e-01</leafValues></_>
        <_>
          <internalNodes>
            0 -1 220 2.0499906968325377e-03</internalNodes>
          <leafValues>
            -1.1700254678726196e-01 5.3493368625640869e-01</leafValues></_>
        <_>
          <internalNodes>
            0 -1 110 -8.0104573862627149e-04</internalNodes>
          <leafValues>
            6.8668216466903687e-01 -7.8622065484523773e-02</leafValues></_>
        <_>
          <internalNodes>
            0 -1 230 5.4210633970797062e-04</internalNodes>
          <leafValues>
            1.2657602131366730e-01 -5.6353497505187988e-01</leafValues></_>
        <_>
          <internalNodes>
            0 -1 129 -6.0850614681839943e-04</internalNodes>
          <leafValues>
            5.1771605014801025e-01 -1.2930049002170563e-01</leafValues></_>
        <_>
          <internalNodes>
            0 -1 147 9.8809506744146347e-03</internalNodes>
          <leafValues>
            -1.7306713759899139e-01 3.7679287791252136e-01</leafValues></_>
        <_>
          <internalNodes>
            0 -1 227 -5.6245352607220411e-04</internalNodes>
          <leafValues>
            3.7882539629936218e-01 -1.7632782459259033e-01</leafValues></_>
        <_>
          <internalNodes>
            0 -1 55 4.9182283692061901e-04</internalNodes>
          <leafValues>
            -1.7924273014068604e-01 3.7045648694038391e-01</leafValues></_>
        <_>
          <internalNodes>
            0 -1 130 5.2669839933514595e-03</internalNodes>
          <leafValues>
            8.2012459635734558e-02 -8.2780224084854126e-01</leafValues></_></weakClassifiers></_>
    <!-- stage 14 -->
    <_>
      <maxWeakCount>19</maxWeakCount>
      <stageThreshold>-8.1927919387817383e-01</stageThreshold>
      <weakClassifiers>
        <_>
          <internalNodes>
            0 -1 59 9.1800210066139698e-04</internalNodes>
          <leafValues>
            -3.0363035202026367e-01 7.7272725105285645e-01</leafValues></_>
        <_>
          <internalNodes>
            0 -1 25 -4.7046021791175008e-04</internalNodes>
          <leafValues>
            2.2772149741649628e-01 -2.6805216073989868e-01</leafValues></_>
        <_>
          <internalNodes>
            0 -1 194 2.4525087326765060e-02</internalNodes>
          <leafValues>
            -1.4834445714950562e-01 3.6127910017967224e-01</leafValues></_>
        <_>
          <internalNodes>
            0 -1 201 1.5556845813989639e-02</internalNodes>
          <leafValues>
            -1.1939990520477295e-01 5.5549323558807373e-01</leafValues></_>
        <_>
          <internalNodes>
            0 -1 114 1.9639281090348959e-03</internalNodes>
          <leafValues>
            1.6019341349601746e-01 -4.2797264456748962e-01</leafValues></_>
        <_>
          <internalNodes>
            0 -1 229 -1.2749891029670835e-03</internalNodes>
          <leafValues>
            3.1815674901008606e-01 -2.3307584226131439e-01</leafValues></_>
        <_>
          <internalNodes>
            0 -1 109 -2.7153152041137218e-03</internalNodes>
          <leafValues>
            2.9810333251953125e-01 -2.1466191112995148e-01</leafValues></_>
        <_>
          <internalNodes>
            0 -1 37 -4.3650139123201370e-03</internalNodes>
          <leafValues>
            6.5522921085357666e-01 -1.0636241734027863e-01</leafValues></_>
        <_>
          <internalNodes>
            0 -1 21 6.3536622292303946e-06</internalNodes>
          <leafValues>
            -2.0816901326179504e-01 3.2296964526176453e-01</leafValues></_>
        <_>
          <internalNodes>
            0 -1 91 -4.2982064187526703e-03</internalNodes>
          <leafValues>
            -3.1139993667602539e-01 2.4122235178947449e-01</leafValues></_>
        <_>
          <internalNodes>
            0 -1 84 2.8042353689670563e-02</internalNodes>
          <leafValues>
            -1.9367183744907379e-01 3.4533190727233887e-01</leafValues></_>
        <_>
          <internalNodes>
            0 -1 63 -2.4511930532753468e-03</internalNodes>
          <leafValues>
            3.1922590732574463e-01 -2.5972393155097961e-01</leafValues></_>
        <_>
          <internalNodes>
            0 -1 205 1.9737137481570244e-03</internalNodes>
          <leafValues>
            -1.7965698242187500e-01 4.1211044788360596e-01</leafValues></_>
        <_>
          <internalNodes>
            0 -1 15 7.0223095463006757e-06</internalNodes>
          <leafValues>
            -2.1181675791740417e-01 3.3006033301353455e-01</leafValues></_>
        <_>
          <internalNodes>
            0 -1 27 -9.1006548609584570e-04</internalNodes>
          <leafValues>
            -3.6131787300109863e-01 2.1010157465934753e-01</leafValues></_>
        <_>
          <internalNodes>
            0 -1 32 6.4059113356051967e-06</internalNodes>
          <leafValues>
            -2.7548131346702576e-01 2.7571144700050354e-01</leafValues></_>
        <_>
          <internalNodes>
            0 -1 214 -8.9398017735220492e-05</internalNodes>
          <leafValues>
            -3.1765946745872498e-01 2.5168904662132263e-01</leafValues></_>
        <_>
          <internalNodes>
            0 -1 76 -1.9772278610616922e-03</internalNodes>
          <leafValues>
            8.6916899681091309e-01 -1.2451098114252090e-01</leafValues></_>
        <_>
          <internalNodes>
            0 -1 24 1.6974776517599821e-03</internalNodes>
          <leafValues>
            1.9320668280124664e-01 -4.3521168828010559e-01</leafValues></_></weakClassifiers></_>
    <!-- stage 15 -->
    <_>
      <maxWeakCount>17</maxWeakCount>
      <stageThreshold>-7.5259429216384888e-01</stageThreshold>
      <weakClassifiers>
        <_>
          <internalNodes>
            0 -1 62 3.8116634823381901e-03</internalNodes>
          <leafValues>
            -2.9315960407257080e-01 8.3333331346511841e-01</leafValues></_>
        <_>
          <internalNodes>
            0 -1 20 2.6556237135082483e-03</internalNodes>
          <leafValues>
            7.7348351478576660e-02 -6.8362843990325928e-01</leafValues></_>
        <_>
          <internalNodes>
            0 -1 208 -1.4438640791922808e-03</internalNodes>
          <leafValues>
            7.1540188789367676e-01 -6.3393078744411469e-02</leafValues></_>
        <_>
          <internalNodes>
            0 -1 165 8.9585710156825371e-06</internalNodes>
          <leafValues>
            -2.0390132069587708e-01 2.8573179244995117e-01</leafValues></_>
        <_>
          <internalNodes>
            0 -1 131 4.9608908593654633e-02</internalNodes>
          <leafValues>
            8.3869822323322296e-02 -6.9117271900177002e-01</leafValues></_>
        <_>
          <internalNodes>
            0 -1 200 3.2604620791971684e-03</internalNodes>
          <leafValues>
            -2.0503994822502136e-01 3.5069671273231506e-01</leafValues></_>
        <_>
          <internalNodes>
            0 -1 67 3.3623964991420507e-03</internalNodes>
          <leafValues>
            -2.2726957499980927e-01 2.9436832666397095e-01</leafValues></_>
        <_>
          <internalNodes>
            0 -1 192 2.4260432110168040e-04</internalNodes>
          <leafValues>
            -1.7449873685836792e-01 3.8136684894561768e-01</leafValues></_>
        <_>
          <internalNodes>
            0 -1 225 2.5494029978290200e-04</internalNodes>
          <leafValues>
            1.2538960576057434e-01 -5.4415190219879150e-01</leafValues></_>
        <_>
          <internalNodes>
            0 -1 10 8.5358296928461641e-05</internalNodes>
          <leafValues>
            -2.1722151339054108e-01 3.1761735677719116e-01</leafValues></_>
        <_>
          <internalNodes>
            0 -1 82 -1.9854402635246515e-03</internalNodes>
          <leafValues>
            -4.9765852093696594e-01 1.4563508331775665e-01</leafValues></_>
        <_>
          <internalNodes>
            0 -1 52 -4.7031603753566742e-03</internalNodes>
          <leafValues>
            4.0446969866752625e-01 -1.8061268329620361e-01</leafValues></_>
        <_>
          <internalNodes>
            0 -1 26 -6.1863756855018437e-05</internalNodes>
          <leafValues>
            -5.1129770278930664e-01 1.3205736875534058e-01</leafValues></_>
        <_>
          <internalNodes>
            0 -1 89 -1.4192896895110607e-02</internalNodes>
          <leafValues>
            4.0840750932693481e-01 -1.8688194453716278e-01</leafValues></_>
        <_>
          <internalNodes>
            0 -1 217 -5.7867483701556921e-04</internalNodes>
          <leafValues>
            5.6257379055023193e-01 -1.3173207640647888e-01</leafValues></_>
        <_>
          <internalNodes>
            0 -1 115 -5.9740017168223858e-03</internalNodes>
          <leafValues>
            6.4576774835586548e-01 -1.0809648036956787e-01</leafValues></_>
        <_>
          <internalNodes>
            0 -1 182 1.7709333042148501e-04</internalNodes>
          <leafValues>
            2.2458842396736145e-01 -3.1497257947921753e-01</leafValues></_></weakClassifiers></_></stages>
  <features>
    <_>
      <rects>
        <_>
          0 1 24 4 -1.</_>
        <_>
          0 2 24 2 2.</_></rects>
      <tilted>0</tilted></_>
    <_>
      <rects>
        <_>
          0 6 5 15 -1.</_>
        <_>
          0 11 5 5 3.</_></rects>
      <tilted>0</tilted></_>
    <_>
      <rects>
        <_>
          0 10 3 15 -1.</_>
        <_>
          1 15 1 5 9.</_></rects>
      <tilted>0</tilted></_>
    <_>
      <rects>
        <_>
          0 12 4 8 -1.</_>
        <_>
          0 12 2 4 2.</_>
        <_>
          2 16 2 4 2.</_></rects>
      <tilted>0</tilted></_>
    <_>
      <rects>
        <_>
          0 12 9 12 -1.</_>
        <_>
          3 16 3 4 9.</_></rects>
      <tilted>0</tilted></_>
    <_>
      <rects>
        <_>
          0 14 6 20 -1.</_>
        <_>
          0 19 6 10 2.</_></rects>
      <tilted>0</tilted></_>
    <_>
      <rects>
        <_>
          0 19 4 15 -1.</_>
        <_>
          2 19 2 15 2.</_></rects>
      <tilted>0</tilted></_>
    <_>
      <rects>
        <_>
          0 20 4 15 -1.</_>
        <_>
          0 25 4 5 3.</_></rects>
      <tilted>0</tilted></_>
    <_>
      <rects>
        <_>
          0 22 14 8 -1.</_>
        <_>
          0 22 7 4 2.</_>
        <_>
          7 26 7 4 2.</_></rects>
      <tilted>0</tilted></_>
    <_>
      <rects>
        <_>
          0 25 9 15 -1.</_>
        <_>
          3 30 3 5 9.</_></rects>
      <tilted>0</tilted></_>
    <_>
      <rects>
        <_>
          0 36 10 2 -1.</_>
        <_>
          0 36 5 1 2.</_>
        <_>
          5 37 5 1 2.</_></rects>
      <tilted>0</tilted></_>
    <_>
      <rects>
        <_>
          0 38 32 2 -1.</_>
        <_>
          8 38 16 2 2.</_></rects>
      <tilted>0</tilted></_>
    <_>
      <rects>
        <_>
          1 0 7 40 -1.</_>
        <_>
          1 10 7 20 2.</_></rects>
      <tilted>0</tilted></_>
    <_>
      <rects>
        <_>
          1 12 24 27 -1.</_>
        <_>
          9 21 8 9 9.</_></rects>
      <tilted>0</tilted></_>
    <_>
      <rects>
        <_>
          1 19 3 12 -1.</_>
        <_>
          1 23 3 4 3.</_></rects>
      <tilted>0</tilted></_>
    <_>
      <rects>
        <_>
          1 28 2 2 -1.</_>
        <_>
          1 28 1 1 2.</_>
        <_>
          2 29 1 1 2.</_></rects>
      <tilted>0</tilted></_>
    <_>
      <rects>
        <_>
          1 28 2 8 -1.</_>
        <_>
          1 30 2 4 2.</_></rects>
      <tilted>0</tilted></_>
    <_>
      <rects>
        <_>
          1 29 2 6 -1.</_>
        <_>
          2 29 1 6 2.</_></rects>
      <tilted>0</tilted></_>
    <_>
      <rects>
        <_>
          2 1 1 8 -1.</_>
        <_>
          2 3 1 4 2.</_></rects>
      <tilted>0</tilted></_>
    <_>
      <rects>
        <_>
          2 1 11 2 -1.</_>
        <_>
          2 2 11 1 2.</_></rects>
      <tilted>0</tilted></_>
    <_>
      <rects>
        <_>
          2 1 30 4 -1.</_>
        <_>
          2 2 30 2 2.</_></rects>
      <tilted>0</tilted></_>
    <_>
      <rects>
        <_>
          2 6 1 2 -1.</_>
        <_>
          2 7 1 1 2.</_></rects>
      <tilted>0</tilted></_>
    <_>
      <rects>
        <_>
          2 16 12 5 -1.</_>
        <_>
          5 16 6 5 2.</_></rects>
      <tilted>0</tilted></_>
    <_>
      <rects>
        <_>
          2 17 10 2 -1.</_>
        <_>
          2 17 5 2 2.</_></rects>
      <tilted>1</tilted></_>
    <_>
      <rects>
        <_>
          2 18 3 10 -1.</_>
        <_>
          2 23 3 5 2.</_></rects>
      <tilted>0</tilted></_>
    <_>
      <rects>
        <_>
          2 19 15 16 -1.</_>
        <_>
          7 19 5 16 3.</_></rects>
      <tilted>0</tilted></_>
    <_>
      <rects>
        <_>
          2 22 2 2 -1.</_>
        <_>
          2 22 1 1 2.</_>
        <_>
          3 23 1 1 2.</_></rects>
      <tilted>0</tilted></_>
    <_>
      <rects>
        <_>
          2 36 8 3 -1.</_>
        <_>
          6 36 4 3 2.</_></rects>
      <tilted>0</tilted></_>
    <_>
      <rects>
        <_>
          3 7 2 1 -1.</_>
        <_>
          4 7 1 1 2.</_></rects>
      <tilted>0</tilted></_>
    <_>
      <rects>
        <_>
          3 7 14 12 -1.</_>
        <_>
          3 7 7 6 2.</_>
        <_>
          10 13 7 6 2.</_></rects>
      <tilted>0</tilted></_>
    <_>
      <rects>
        <_>
          3 17 1 9 -1.</_>
        <_>
          3 20 1 3 3.</_></rects>
      <tilted>0</tilted></_>
    <_>
      <rects>
        <_>
          3 18 2 10 -1.</_>
        <_>
          3 23 2 5 2.</_></rects>
      <tilted>0</tilted></_>
    <_>
      <rects>
        <_>
          3 26 4 1 -1.</_>
        <_>
          4 26 2 1 2.</_></rects>
      <tilted>0</tilted></_>
    <_>
      <rects>
        <_>
          4 0 4 1 -1.</_>
        <_>
          6 0 2 1 2.</_></rects>
      <tilted>0</tilted></_>
    <_>
      <rects>
        <_>
          4 0 12 1 -1.</_>
        <_>
          7 0 6 1 2.</_></rects>
      <tilted>0</tilted></_>
    <_>
      <rects>
        <_>
          4 11 6 22 -1.</_>
        <_>
          7 11 3 22 2.</_></rects>
      <tilted>0</tilted></_>
    <_>
      <rects>
        <_>
          4 25 15 9 -1.</_>
        <_>
          9 28 5 3 9.</_></rects>
      <tilted>0</tilted></_>
    <_>
      <rects>
        <_>
          5 15 10 4 -1.</_>
        <_>
          5 15 5 2 2.</_>
        <_>
          10 17 5 2 2.</_></rects>
      <tilted>0</tilted></_>
    <_>
      <rects>
        <_>
          5 19 20 11 -1.</_>
        <_>
          15 19 10 11 2.</_></rects>
      <tilted>0</tilted></_>
    <_>
      <rects>
        <_>
          5 37 1 2 -1.</_>
        <_>
          5 38 1 1 2.</_></rects>
      <tilted>0</tilted></_>
    <_>
      <rects>
        <_>
          6 13 1 4 -1.</_>
        <_>
          6 14 1 2 2.</_></rects>
      <tilted>0</tilted></_>
    <_>
      <rects>
        <_>
          7 0 15 2 -1.</_>
        <_>
          12 0 5 2 3.</_></rects>
      <tilted>0</tilted></_>
    <_>
      <rects>
        <_>
          7 1 5 6 -1.</_>
        <_>
          7 1 5 3 2.</_></rects>
      <tilted>1</tilted></_>
    <_>
      <rects>
        <_>
          7 2 22 3 -1.</_>
        <_>
          18 2 11 3 2.</_></rects>
      <tilted>0</tilted></_>
    <_>
      <rects>
        <_>
          7 13 18 5 -1.</_>
        <_>
          7 13 9 5 2.</_></rects>
      <tilted>1</tilted></_>
    <_>
      <rects>
        <_>
          7 19 23 4 -1.</_>
        <_>
          7 20 23 2 2.</_></rects>
      <tilted>0</tilted></_>
    <_>
      <rects>
        <_>
          7 19 31 4 -1.</_>
        <_>
          7 20 31 2 2.</_></rects>
      <tilted>0</tilted></_>
    <_>
      <rects>
        <_>
          7 39 21 1 -1.</_>
        <_>
          14 39 7 1 3.</_></rects>
      <tilted>0</tilted></_>
    <_>
      <rects>
        <_>
          8 17 15 6 -1.</_>
        <_>
          13 19 5 2 9.</_></rects>
      <tilted>0</tilted></_>
    <_>
      <rects>
        <_>
          8 19 8 2 -1.</_>
        <_>
          8 19 4 1 2.</_>
        <_>
          12 20 4 1 2.</_></rects>
      <tilted>0</tilted></_>
    <_>
      <rects>
        <_>
          8 21 12 2 -1.</_>
        <_>
          8 21 6 1 2.</_>
        <_>
          14 22 6 1 2.</_></rects>
      <tilted>0</tilted></_>
    <_>
      <rects>
        <_>
          8 28 1 3 -1.</_>
        <_>
          8 29 1 1 3.</_></rects>
      <tilted>0</tilted></_>
    <_>
      <rects>
        <_>
          9 2 20 4 -1.</_>
        <_>
          14 2 10 4 2.</_></rects>
      <tilted>0</tilted></_>
    <_>
      <rects>
        <_>
          9 7 23 4 -1.</_>
        <_>
          8 8 23 2 2.</_></rects>
      <tilted>1</tilted></_>
    <_>
      <rects>
        <_>
          9 9 16 6 -1.</_>
        <_>
          13 9 8 6 2.</_></rects>
      <tilted>0</tilted></_>
    <_>
      <rects>
        <_>
          9 10 5 3 -1.</_>
        <_>
          8 11 5 1 3.</_></rects>
      <tilted>1</tilted></_>
    <_>
      <rects>
        <_>
          9 12 30 20 -1.</_>
        <_>
          19 12 10 20 3.</_></rects>
      <tilted>0</tilted></_>
    <_>
      <rects>
        <_>
          9 37 28 3 -1.</_>
        <_>
          9 38 28 1 3.</_></rects>
      <tilted>0</tilted></_>
    <_>
      <rects>
        <_>
          10 0 13 32 -1.</_>
        <_>
          10 16 13 16 2.</_></rects>
      <tilted>0</tilted></_>
    <_>
      <rects>
        <_>
          10 19 1 4 -1.</_>
        <_>
          10 20 1 2 2.</_></rects>
      <tilted>0</tilted></_>
    <_>
      <rects>
        <_>
          11 2 13 3 -1.</_>
        <_>
          10 3 13 1 3.</_></rects>
      <tilted>1</tilted></_>
    <_>
      <rects>
        <_>
          11 16 2 24 -1.</_>
        <_>
          11 24 2 8 3.</_></rects>
      <tilted>0</tilted></_>
    <_>
      <rects>
        <_>
          11 19 4 2 -1.</_>
        <_>
          11 20 4 1 2.</_></rects>
      <tilted>0</tilted></_>
    <_>
      <rects>
        <_>
          11 19 29 8 -1.</_>
        <_>
          11 21 29 4 2.</_></rects>
      <tilted>0</tilted></_>
    <_>
      <rects>
        <_>
          12 2 8 2 -1.</_>
        <_>
          12 2 8 1 2.</_></rects>
      <tilted>1</tilted></_>
    <_>
      <rects>
        <_>
          12 3 22 3 -1.</_>
        <_>
          11 4 22 1 3.</_></rects>
      <tilted>1</tilted></_>
    <_>
      <rects>
        <_>
          12 8 6 12 -1.</_>
        <_>
          12 12 6 4 3.</_></rects>
      <tilted>0</tilted></_>
    <_>
      <rects>
        <_>
          12 9 4 12 -1.</_>
        <_>
          12 13 4 4 3.</_></rects>
      <tilted>0</tilted></_>
    <_>
      <rects>
        <_>
          12 12 4 4 -1.</_>
        <_>
          14 12 2 4 2.</_></rects>
      <tilted>0</tilted></_>
    <_>
      <rects>
        <_>
          12 15 3 9 -1.</_>
        <_>
          13 18 1 3 9.</_></rects>
      <tilted>0</tilted></_>
    <_>
      <rects>
        <_>
          12 20 14 12 -1.</_>
        <_>
          19 20 7 12 2.</_></rects>
      <tilted>0</tilted></_>
    <_>
      <rects>
        <_>
          12 24 6 9 -1.</_>
        <_>
          14 24 2 9 3.</_></rects>
      <tilted>0</tilted></_>
    <_>
      <rects>
        <_>
          12 27 24 8 -1.</_>
        <_>
          20 27 8 8 3.</_></rects>
      <tilted>0</tilted></_>
    <_>
      <rects>
        <_>
          12 28 24 12 -1.</_>
        <_>
          12 28 12 6 2.</_>
        <_>
          24 34 12 6 2.</_></rects>
      <tilted>0</tilted></_>
    <_>
      <rects>
        <_>
          13 1 10 6 -1.</_>
        <_>
          13 1 5 3 2.</_>
        <_>
          18 4 5 3 2.</_></rects>
      <tilted>0</tilted></_>
    <_>
      <rects>
        <_>
          13 8 24 3 -1.</_>
        <_>
          12 9 24 1 3.</_></rects>
      <tilted>1</tilted></_>
    <_>
      <rects>
        <_>
          13 13 2 4 -1.</_>
        <_>
          13 14 2 2 2.</_></rects>
      <tilted>0</tilted></_>
    <_>
      <rects>
        <_>
          13 18 4 1 -1.</_>
        <_>
          14 19 2 1 2.</_></rects>
      <tilted>1</tilted></_>
    <_>
      <rects>
        <_>
          13 19 17 4 -1.</_>
        <_>
          13 20 17 2 2.</_></rects>
      <tilted>0</tilted></_>
    <_>
      <rects>
        <_>
          13 21 24 3 -1.</_>
        <_>
          21 22 8 1 9.</_></rects>
      <tilted>0</tilted></_>
    <_>
      <rects>
        <_>
          13 22 4 4 -1.</_>
        <_>
          14 23 2 4 2.</_></rects>
      <tilted>1</tilted></_>
    <_>
      <rects>
        <_>
          13 34 24 6 -1.</_>
        <_>
          19 34 12 6 2.</_></rects>
      <tilted>0</tilted></_>
    <_>
      <rects>
        <_>
          14 0 15 1 -1.</_>
        <_>
          19 0 5 1 3.</_></rects>
      <tilted>0</tilted></_>
    <_>
      <rects>
        <_>
          14 8 24 8 -1.</_>
        <_>
          22 16 8 8 3.</_></rects>
      <tilted>1</tilted></_>
    <_>
      <rects>
        <_>
          14 15 10 20 -1.</_>
        <_>
          14 20 10 10 2.</_></rects>
      <tilted>0</tilted></_>
    <_>
      <rects>
        <_>
          14 16 3 3 -1.</_>
        <_>
          15 17 1 1 9.</_></rects>
      <tilted>0</tilted></_>
    <_>
      <rects>
        <_>
          14 16 1 12 -1.</_>
        <_>
          14 20 1 4 3.</_></rects>
      <tilted>0</tilted></_>
    <_>
      <rects>
        <_>
          14 19 19 2 -1.</_>
        <_>
          14 20 19 1 2.</_></rects>
      <tilted>0</tilted></_>
    <_>
      <rects>
        <_>
          14 20 2 2 -1.</_>
        <_>
          14 20 1 1 2.</_>
        <_>
          15 21 1 1 2.</_></rects>
      <tilted>0</tilted></_>
    <_>
      <rects>
        <_>
          14 20 21 9 -1.</_>
        <_>
          14 23 21 3 3.</_></rects>
      <tilted>0</tilted></_>
    <_>
      <rects>
        <_>
          15 9 19 18 -1.</_>
        <_>
          15 18 19 9 2.</_></rects>
      <tilted>0</tilted></_>
    <_>
      <rects>
        <_>
          15 11 9 12 -1.</_>
        <_>
          18 15 3 4 9.</_></rects>
      <tilted>0</tilted></_>
    <_>
      <rects>
        <_>
          15 14 6 6 -1.</_>
        <_>
          15 14 3 3 2.</_>
        <_>
          18 17 3 3 2.</_></rects>
      <tilted>0</tilted></_>
    <_>
      <rects>
        <_>
          15 17 1 3 -1.</_>
        <_>
          14 18 1 1 3.</_></rects>
      <tilted>1</tilted></_>
    <_>
      <rects>
        <_>
          15 19 2 11 -1.</_>
        <_>
          15 19 1 11 2.</_></rects>
      <tilted>1</tilted></_>
    <_>
      <rects>
        <_>
          15 26 16 8 -1.</_>
        <_>
          19 26 8 8 2.</_></rects>
      <tilted>0</tilted></_>
    <_>
      <rects>
        <_>
          16 0 18 26 -1.</_>
        <_>
          16 13 18 13 2.</_></rects>
      <tilted>0</tilted></_>
    <_>
      <rects>
        <_>
          16 0 23 34 -1.</_>
        <_>
          16 17 23 17 2.</_></rects>
      <tilted>0</tilted></_>
    <_>
      <rects>
        <_>
          16 8 10 8 -1.</_>
        <_>
          14 10 10 4 2.</_></rects>
      <tilted>1</tilted></_>
    <_>
      <rects>
        <_>
          16 14 5 12 -1.</_>
        <_>
          16 17 5 6 2.</_></rects>
      <tilted>0</tilted></_>
    <_>
      <rects>
        <_>
          16 15 1 8 -1.</_>
        <_>
          16 17 1 4 2.</_></rects>
      <tilted>0</tilted></_>
    <_>
      <rects>
        <_>
          16 15 6 6 -1.</_>
        <_>
          18 17 2 2 9.</_></rects>
      <tilted>0</tilted></_>
    <_>
      <rects>
        <_>
          16 18 3 6 -1.</_>
        <_>
          17 20 1 2 9.</_></rects>
      <tilted>0</tilted></_>
    <_>
      <rects>
        <_>
          16 18 2 2 -1.</_>
        <_>
          16 19 2 1 2.</_></rects>
      <tilted>0</tilted></_>
    <_>
      <rects>
        <_>
          16 19 6 9 -1.</_>
        <_>
          18 22 2 3 9.</_></rects>
      <tilted>0</tilted></_>
    <_>
      <rects>
        <_>
          16 20 24 14 -1.</_>
        <_>
          16 27 24 7 2.</_></rects>
      <tilted>0</tilted></_>
    <_>
      <rects>
        <_>
          16 21 3 3 -1.</_>
        <_>
          17 22 1 1 9.</_></rects>
      <tilted>0</tilted></_>
    <_>
      <rects>
        <_>
          16 28 3 4 -1.</_>
        <_>
          17 28 1 4 3.</_></rects>
      <tilted>0</tilted></_>
    <_>
      <rects>
        <_>
          17 0 18 15 -1.</_>
        <_>
          12 5 18 5 3.</_></rects>
      <tilted>1</tilted></_>
    <_>
      <rects>
        <_>
          17 13 6 14 -1.</_>
        <_>
          19 13 2 14 3.</_></rects>
      <tilted>0</tilted></_>
    <_>
      <rects>
        <_>
          17 16 4 1 -1.</_>
        <_>
          18 16 2 1 2.</_></rects>
      <tilted>0</tilted></_>
    <_>
      <rects>
        <_>
          17 19 3 3 -1.</_>
        <_>
          18 20 1 1 9.</_></rects>
      <tilted>0</tilted></_>
    <_>
      <rects>
        <_>
          17 19 1 4 -1.</_>
        <_>
          17 21 1 2 2.</_></rects>
      <tilted>0</tilted></_>
    <_>
      <rects>
        <_>
          17 20 5 4 -1.</_>
        <_>
          17 21 5 2 2.</_></rects>
      <tilted>0</tilted></_>
    <_>
      <rects>
        <_>
          17 25 7 6 -1.</_>
        <_>
          17 28 7 3 2.</_></rects>
      <tilted>0</tilted></_>
    <_>
      <rects>
        <_>
          18 7 8 4 -1.</_>
        <_>
          20 7 4 4 2.</_></rects>
      <tilted>0</tilted></_>
    <_>
      <rects>
        <_>
          18 8 8 4 -1.</_>
        <_>
          17 9 8 2 2.</_></rects>
      <tilted>1</tilted></_>
    <_>
      <rects>
        <_>
          18 10 12 7 -1.</_>
        <_>
          21 10 6 7 2.</_></rects>
      <tilted>0</tilted></_>
    <_>
      <rects>
        <_>
          18 11 16 10 -1.</_>
        <_>
          22 11 8 10 2.</_></rects>
      <tilted>0</tilted></_>
    <_>
      <rects>
        <_>
          18 12 17 14 -1.</_>
        <_>
          18 19 17 7 2.</_></rects>
      <tilted>0</tilted></_>
    <_>
      <rects>
        <_>
          18 27 2 3 -1.</_>
        <_>
          18 28 2 1 3.</_></rects>
      <tilted>0</tilted></_>
    <_>
      <rects>
        <_>
          19 5 7 3 -1.</_>
        <_>
          18 6 7 1 3.</_></rects>
      <tilted>1</tilted></_>
    <_>
      <rects>
        <_>
          19 14 3 1 -1.</_>
        <_>
          20 15 1 1 3.</_></rects>
      <tilted>1</tilted></_>
    <_>
      <rects>
        <_>
          19 15 6 9 -1.</_>
        <_>
          21 18 2 3 9.</_></rects>
      <tilted>0</tilted></_>
    <_>
      <rects>
        <_>
          19 16 3 3 -1.</_>
        <_>
          18 17 3 1 3.</_></rects>
      <tilted>1</tilted></_>
    <_>
      <rects>
        <_>
          19 18 3 6 -1.</_>
        <_>
          20 18 1 6 3.</_></rects>
      <tilted>0</tilted></_>
    <_>
      <rects>
        <_>
          19 21 3 3 -1.</_>
        <_>
          20 22 1 1 9.</_></rects>
      <tilted>0</tilted></_>
    <_>
      <rects>
        <_>
          19 27 9 4 -1.</_>
        <_>
          22 27 3 4 3.</_></rects>
      <tilted>0</tilted></_>
    <_>
      <rects>
        <_>
          19 29 3 8 -1.</_>
        <_>
          20 29 1 8 3.</_></rects>
      <tilted>0</tilted></_>
    <_>
      <rects>
        <_>
          19 30 3 5 -1.</_>
        <_>
          20 30 1 5 3.</_></rects>
      <tilted>0</tilted></_>
    <_>
      <rects>
        <_>
          19 38 12 2 -1.</_>
        <_>
          23 38 4 2 3.</_></rects>
      <tilted>0</tilted></_>
    <_>
      <rects>
        <_>
          20 5 10 15 -1.</_>
        <_>
          20 10 10 5 3.</_></rects>
      <tilted>0</tilted></_>
    <_>
      <rects>
        <_>
          20 9 4 2 -1.</_>
        <_>
          20 9 2 1 2.</_>
        <_>
          22 10 2 1 2.</_></rects>
      <tilted>0</tilted></_>
    <_>
      <rects>
        <_>
          20 13 2 3 -1.</_>
        <_>
          19 14 2 1 3.</_></rects>
      <tilted>1</tilted></_>
    <_>
      <rects>
        <_>
          20 13 2 4 -1.</_>
        <_>
          20 13 2 2 2.</_></rects>
      <tilted>1</tilted></_>
    <_>
      <rects>
        <_>
          20 14 4 8 -1.</_>
        <_>
          21 15 2 8 2.</_></rects>
      <tilted>1</tilted></_>
    <_>
      <rects>
        <_>
          20 16 3 3 -1.</_>
        <_>
          21 17 1 1 9.</_></rects>
      <tilted>0</tilted></_>
    <_>
      <rects>
        <_>
          20 20 8 1 -1.</_>
        <_>
          22 22 4 1 2.</_></rects>
      <tilted>1</tilted></_>
    <_>
      <rects>
        <_>
          20 22 3 1 -1.</_>
        <_>
          21 22 1 1 3.</_></rects>
      <tilted>0</tilted></_>
    <_>
      <rects>
        <_>
          20 22 4 3 -1.</_>
        <_>
          21 22 2 3 2.</_></rects>
      <tilted>0</tilted></_>
    <_>
      <rects>
        <_>
          20 24 6 1 -1.</_>
        <_>
          22 24 2 1 3.</_></rects>
      <tilted>0</tilted></_>
    <_>
      <rects>
        <_>
          20 24 20 15 -1.</_>
        <_>
          20 29 20 5 3.</_></rects>
      <tilted>0</tilted></_>
    <_>
      <rects>
        <_>
          20 27 4 5 -1.</_>
        <_>
          21 27 2 5 2.</_></rects>
      <tilted>0</tilted></_>
    <_>
      <rects>
        <_>
          20 28 4 3 -1.</_>
        <_>
          21 28 2 3 2.</_></rects>
      <tilted>0</tilted></_>
    <_>
      <rects>
        <_>
          21 0 19 20 -1.</_>
        <_>
          16 5 19 10 2.</_></rects>
      <tilted>1</tilted></_>
    <_>
      <rects>
        <_>
          21 11 2 8 -1.</_>
        <_>
          21 11 1 4 2.</_>
        <_>
          22 15 1 4 2.</_></rects>
      <tilted>0</tilted></_>
    <_>
      <rects>
        <_>
          21 12 3 16 -1.</_>
        <_>
          22 12 1 16 3.</_></rects>
      <tilted>0</tilted></_>
    <_>
      <rects>
        <_>
          21 12 4 8 -1.</_>
        <_>
          19 14 4 4 2.</_></rects>
      <tilted>1</tilted></_>
    <_>
      <rects>
        <_>
          21 13 4 7 -1.</_>
        <_>
          22 14 2 7 2.</_></rects>
      <tilted>1</tilted></_>
    <_>
      <rects>
        <_>
          21 14 2 4 -1.</_>
        <_>
          21 14 1 2 2.</_>
        <_>
          22 16 1 2 2.</_></rects>
      <tilted>0</tilted></_>
    <_>
      <rects>
        <_>
          21 14 6 3 -1.</_>
        <_>
          23 15 2 1 9.</_></rects>
      <tilted>0</tilted></_>
    <_>
      <rects>
        <_>
          21 15 6 15 -1.</_>
        <_>
          23 20 2 5 9.</_></rects>
      <tilted>0</tilted></_>
    <_>
      <rects>
        <_>
          21 16 6 3 -1.</_>
        <_>
          23 17 2 1 9.</_></rects>
      <tilted>0</tilted></_>
    <_>
      <rects>
        <_>
          21 21 6 3 -1.</_>
        <_>
          23 22 2 1 9.</_></rects>
      <tilted>0</tilted></_>
    <_>
      <rects>
        <_>
          21 28 6 4 -1.</_>
        <_>
          23 28 2 4 3.</_></rects>
      <tilted>0</tilted></_>
    <_>
      <rects>
        <_>
          22 12 9 22 -1.</_>
        <_>
          25 12 3 22 3.</_></rects>
      <tilted>0</tilted></_>
    <_>
      <rects>
        <_>
          22 12 12 3 -1.</_>
        <_>
          26 12 4 3 3.</_></rects>
      <tilted>0</tilted></_>
    <_>
      <rects>
        <_>
          22 13 6 6 -1.</_>
        <_>
          22 13 3 3 2.</_>
        <_>
          25 16 3 3 2.</_></rects>
      <tilted>0</tilted></_>
    <_>
      <rects>
        <_>
          22 17 3 3 -1.</_>
        <_>
          23 18 1 1 9.</_></rects>
      <tilted>0</tilted></_>
    <_>
      <rects>
        <_>
          22 20 3 3 -1.</_>
        <_>
          23 21 1 1 9.</_></rects>
      <tilted>0</tilted></_>
    <_>
      <rects>
        <_>
          22 23 18 8 -1.</_>
        <_>
          22 27 18 4 2.</_></rects>
      <tilted>0</tilted></_>
    <_>
      <rects>
        <_>
          22 24 2 4 -1.</_>
        <_>
          22 24 1 2 2.</_>
        <_>
          23 26 1 2 2.</_></rects>
      <tilted>0</tilted></_>
    <_>
      <rects>
        <_>
          22 24 2 6 -1.</_>
        <_>
          22 24 1 3 2.</_>
        <_>
          23 27 1 3 2.</_></rects>
      <tilted>0</tilted></_>
    <_>
      <rects>
        <_>
          22 24 6 3 -1.</_>
        <_>
          24 25 2 1 9.</_></rects>
      <tilted>0</tilted></_>
    <_>
      <rects>
        <_>
          22 25 4 1 -1.</_>
        <_>
          23 25 2 1 2.</_></rects>
      <tilted>0</tilted></_>
    <_>
      <rects>
        <_>
          23 1 1 4 -1.</_>
        <_>
          23 2 1 2 2.</_></rects>
      <tilted>0</tilted></_>
    <_>
      <rects>
        <_>
          23 10 3 6 -1.</_>
        <_>
          24 12 1 2 9.</_></rects>
      <tilted>0</tilted></_>
    <_>
      <rects>
        <_>
          23 12 3 1 -1.</_>
        <_>
          24 12 1 1 3.</_></rects>
      <tilted>0</tilted></_>
    <_>
      <rects>
        <_>
          23 13 2 4 -1.</_>
        <_>
          23 13 1 2 2.</_>
        <_>
          24 15 1 2 2.</_></rects>
      <tilted>0</tilted></_>
    <_>
      <rects>
        <_>
          23 14 4 26 -1.</_>
        <_>
          24 14 2 26 2.</_></rects>
      <tilted>0</tilted></_>
    <_>
      <rects>
        <_>
          23 15 9 6 -1.</_>
        <_>
          26 17 3 2 9.</_></rects>
      <tilted>0</tilted></_>
    <_>
      <rects>
        <_>
          23 16 3 13 -1.</_>
        <_>
          24 17 1 13 3.</_></rects>
      <tilted>1</tilted></_>
    <_>
      <rects>
        <_>
          23 16 4 4 -1.</_>
        <_>
          23 16 2 2 2.</_>
        <_>
          25 18 2 2 2.</_></rects>
      <tilted>0</tilted></_>
    <_>
      <rects>
        <_>
          23 20 7 4 -1.</_>
        <_>
          23 21 7 2 2.</_></rects>
      <tilted>0</tilted></_>
    <_>
      <rects>
        <_>
          24 1 11 4 -1.</_>
        <_>
          24 2 11 2 2.</_></rects>
      <tilted>0</tilted></_>
    <_>
      <rects>
        <_>
          24 13 4 1 -1.</_>
        <_>
          25 13 2 1 2.</_></rects>
      <tilted>0</tilted></_>
    <_>
      <rects>
        <_>
          24 16 6 6 -1.</_>
        <_>
          26 18 2 2 9.</_></rects>
      <tilted>0</tilted></_>
    <_>
      <rects>
        <_>
          24 17 3 3 -1.</_>
        <_>
          25 18 1 1 9.</_></rects>
      <tilted>0</tilted></_>
    <_>
      <rects>
        <_>
          24 17 8 2 -1.</_>
        <_>
          24 17 4 1 2.</_>
        <_>
          28 18 4 1 2.</_></rects>
      <tilted>0</tilted></_>
    <_>
      <rects>
        <_>
          24 19 14 2 -1.</_>
        <_>
          24 19 7 1 2.</_>
        <_>
          31 20 7 1 2.</_></rects>
      <tilted>0</tilted></_>
    <_>
      <rects>
        <_>
          24 39 8 1 -1.</_>
        <_>
          26 39 4 1 2.</_></rects>
      <tilted>0</tilted></_>
    <_>
      <rects>
        <_>
          25 1 6 9 -1.</_>
        <_>
          27 3 2 9 3.</_></rects>
      <tilted>1</tilted></_>
    <_>
      <rects>
        <_>
          25 4 1 6 -1.</_>
        <_>
          25 7 1 3 2.</_></rects>
      <tilted>0</tilted></_>
    <_>
      <rects>
        <_>
          25 7 4 3 -1.</_>
        <_>
          26 7 2 3 2.</_></rects>
      <tilted>0</tilted></_>
    <_>
      <rects>
        <_>
          25 13 3 6 -1.</_>
        <_>
          26 15 1 2 9.</_></rects>
      <tilted>0</tilted></_>
    <_>
      <rects>
        <_>
          25 14 12 1 -1.</_>
        <_>
          28 14 6 1 2.</_></rects>
      <tilted>0</tilted></_>
    <_>
      <rects>
        <_>
          25 16 3 6 -1.</_>
        <_>
          26 18 1 2 9.</_></rects>
      <tilted>0</tilted></_>
    <_>
      <rects>
        <_>
          25 22 3 10 -1.</_>
        <_>
          25 27 3 5 2.</_></rects>
      <tilted>0</tilted></_>
    <_>
      <rects>
        <_>
          25 35 1 4 -1.</_>
        <_>
          25 35 1 2 2.</_></rects>
      <tilted>1</tilted></_>
    <_>
      <rects>
        <_>
          26 2 6 18 -1.</_>
        <_>
          26 2 3 9 2.</_>
        <_>
          29 11 3 9 2.</_></rects>
      <tilted>0</tilted></_>
    <_>
      <rects>
        <_>
          26 2 11 8 -1.</_>
        <_>
          26 6 11 4 2.</_></rects>
      <tilted>0</tilted></_>
    <_>
      <rects>
        <_>
          26 5 6 4 -1.</_>
        <_>
          28 7 2 4 3.</_></rects>
      <tilted>1</tilted></_>
    <_>
      <rects>
        <_>
          26 8 14 2 -1.</_>
        <_>
          26 8 7 1 2.</_>
        <_>
          33 9 7 1 2.</_></rects>
      <tilted>0</tilted></_>
    <_>
      <rects>
        <_>
          26 9 4 19 -1.</_>
        <_>
          26 9 2 19 2.</_></rects>
      <tilted>1</tilted></_>
    <_>
      <rects>
        <_>
          26 15 5 15 -1.</_>
        <_>
          26 20 5 5 3.</_></rects>
      <tilted>0</tilted></_>
    <_>
      <rects>
        <_>
          26 20 12 8 -1.</_>
        <_>
          26 22 12 4 2.</_></rects>
      <tilted>0</tilted></_>
    <_>
      <rects>
        <_>
          26 21 3 6 -1.</_>
        <_>
          27 23 1 2 9.</_></rects>
      <tilted>0</tilted></_>
    <_>
      <rects>
        <_>
          26 22 14 11 -1.</_>
        <_>
          33 22 7 11 2.</_></rects>
      <tilted>0</tilted></_>
    <_>
      <rects>
        <_>
          26 24 3 4 -1.</_>
        <_>
          25 25 3 2 2.</_></rects>
      <tilted>1</tilted></_>
    <_>
      <rects>
        <_>
          27 3 11 6 -1.</_>
        <_>
          27 5 11 2 3.</_></rects>
      <tilted>0</tilted></_>
    <_>
      <rects>
        <_>
          27 4 4 15 -1.</_>
        <_>
          27 9 4 5 3.</_></rects>
      <tilted>0</tilted></_>
    <_>
      <rects>
        <_>
          27 10 9 3 -1.</_>
        <_>
          30 13 3 3 3.</_></rects>
      <tilted>1</tilted></_>
    <_>
      <rects>
        <_>
          27 14 6 6 -1.</_>
        <_>
          27 14 3 3 2.</_>
        <_>
          30 17 3 3 2.</_></rects>
      <tilted>0</tilted></_>
    <_>
      <rects>
        <_>
          27 18 4 4 -1.</_>
        <_>
          27 18 2 2 2.</_>
        <_>
          29 20 2 2 2.</_></rects>
      <tilted>0</tilted></_>
    <_>
      <rects>
        <_>
          27 20 4 8 -1.</_>
        <_>
          27 20 2 8 2.</_></rects>
      <tilted>1</tilted></_>
    <_>
      <rects>
        <_>
          27 20 3 4 -1.</_>
        <_>
          26 21 3 2 2.</_></rects>
      <tilted>1</tilted></_>
    <_>
      <rects>
        <_>
          28 0 12 38 -1.</_>
        <_>
          28 19 12 19 2.</_></rects>
      <tilted>0</tilted></_>
    <_>
      <rects>
        <_>
          28 10 11 2 -1.</_>
        <_>
          28 11 11 1 2.</_></rects>
      <tilted>0</tilted></_>
    <_>
      <rects>
        <_>
          28 12 3 1 -1.</_>
        <_>
          29 13 1 1 3.</_></rects>
      <tilted>1</tilted></_>
    <_>
      <rects>
        <_>
          28 12 6 9 -1.</_>
        <_>
          30 15 2 3 9.</_></rects>
      <tilted>0</tilted></_>
    <_>
      <rects>
        <_>
          28 19 1 4 -1.</_>
        <_>
          28 21 1 2 2.</_></rects>
      <tilted>0</tilted></_>
    <_>
      <rects>
        <_>
          28 19 3 6 -1.</_>
        <_>
          29 21 1 2 9.</_></rects>
      <tilted>0</tilted></_>
    <_>
      <rects>
        <_>
          28 21 2 3 -1.</_>
        <_>
          28 22 2 1 3.</_></rects>
      <tilted>0</tilted></_>
    <_>
      <rects>
        <_>
          29 4 8 1 -1.</_>
        <_>
          31 6 4 1 2.</_></rects>
      <tilted>1</tilted></_>
    <_>
      <rects>
        <_>
          29 34 2 4 -1.</_>
        <_>
          29 34 1 4 2.</_></rects>
      <tilted>1</tilted></_>
    <_>
      <rects>
        <_>
          30 4 8 1 -1.</_>
        <_>
          34 4 4 1 2.</_></rects>
      <tilted>0</tilted></_>
    <_>
      <rects>
        <_>
          30 17 3 2 -1.</_>
        <_>
          30 18 3 1 2.</_></rects>
      <tilted>0</tilted></_>
    <_>
      <rects>
        <_>
          30 20 2 3 -1.</_>
        <_>
          30 21 2 1 3.</_></rects>
      <tilted>0</tilted></_>
    <_>
      <rects>
        <_>
          31 33 2 4 -1.</_>
        <_>
          31 33 2 2 2.</_></rects>
      <tilted>1</tilted></_>
    <_>
      <rects>
        <_>
          32 13 4 13 -1.</_>
        <_>
          33 14 2 13 2.</_></rects>
      <tilted>1</tilted></_>
    <_>
      <rects>
        <_>
          32 16 1 8 -1.</_>
        <_>
          32 18 1 4 2.</_></rects>
      <tilted>0</tilted></_>
    <_>
      <rects>
        <_>
          32 19 2 2 -1.</_>
        <_>
          32 19 1 2 2.</_></rects>
      <tilted>1</tilted></_>
    <_>
      <rects>
        <_>
          32 20 1 3 -1.</_>
        <_>
          32 21 1 1 3.</_></rects>
      <tilted>0</tilted></_>
    <_>
      <rects>
        <_>
          32 27 3 1 -1.</_>
        <_>
          33 27 1 1 3.</_></rects>
      <tilted>0</tilted></_>
    <_>
      <rects>
        <_>
          32 36 8 4 -1.</_>
        <_>
          34 36 4 4 2.</_></rects>
      <tilted>0</tilted></_>
    <_>
      <rects>
        <_>
          33 24 3 2 -1.</_>
        <_>
          33 25 3 1 2.</_></rects>
      <tilted>0</tilted></_>
    <_>
      <rects>
        <_>
          34 6 4 29 -1.</_>
        <_>
          36 6 2 29 2.</_></rects>
      <tilted>0</tilted></_>
    <_>
      <rects>
        <_>
          34 17 3 3 -1.</_>
        <_>
          35 18 1 3 3.</_></rects>
      <tilted>1</tilted></_>
    <_>
      <rects>
        <_>
          35 36 1 2 -1.</_>
        <_>
          35 37 1 1 2.</_></rects>
      <tilted>0</tilted></_>
    <_>
      <rects>
        <_>
          36 7 4 22 -1.</_>
        <_>
          37 8 2 22 2.</_></rects>
      <tilted>1</tilted></_>
    <_>
      <rects>
        <_>
          36 8 1 4 -1.</_>
        <_>
          35 9 1 2 2.</_></rects>
      <tilted>1</tilted></_>
    <_>
      <rects>
        <_>
          37 26 3 10 -1.</_>
        <_>
          37 31 3 5 2.</_></rects>
      <tilted>0</tilted></_>
    <_>
      <rects>
        <_>
          38 3 1 8 -1.</_>
        <_>
          38 5 1 4 2.</_></rects>
      <tilted>0</tilted></_>
    <_>
      <rects>
        <_>
          38 17 2 20 -1.</_>
        <_>
          38 22 2 10 2.</_></rects>
      <tilted>0</tilted></_>
    <_>
      <rects>
        <_>
          39 2 1 15 -1.</_>
        <_>
          39 7 1 5 3.</_></rects>
      <tilted>0</tilted></_></features></cascade>
</opencv_storage>
