<?xml version="1.0"?>
<opencv_storage>
<stage1>
  <maxWeakCount>10</maxWeakCount>
  <stageThreshold>-5.8912187814712524e-01</stageThreshold>
  <weakClassifiers>
    <_>
      <internalNodes>
        0 -1 1568547 1.3214796781539917e-03</internalNodes>
      <leafValues>
        -4.3223443627357483e-01 8.2692307233810425e-01</leafValues></_>
    <_>
      <internalNodes>
        0 -1 1661968 1.1126295430585742e-03</internalNodes>
      <leafValues>
        -2.2818410396575928e-01 8.0290919542312622e-01</leafValues></_>
    <_>
      <internalNodes>
        0 -1 1661968 -1.4343627262860537e-03</internalNodes>
      <leafValues>
        9.0165853500366211e-01 -2.6810756325721741e-01</leafValues></_>
    <_>
      <internalNodes>
        0 -1 1501013 -6.8940280470997095e-04</internalNodes>
      <leafValues>
        7.8672242164611816e-01 -2.2215533256530762e-01</leafValues></_>
    <_>
      <internalNodes>
        0 -1 1557936 -4.2787129059433937e-03</internalNodes>
      <leafValues>
        8.7006187438964844e-01 -1.5471312403678894e-01</leafValues></_>
    <_>
      <internalNodes>
        0 -1 47230 1.1258447542786598e-02</internalNodes>
      <leafValues>
        2.7553841471672058e-01 -7.5436025857925415e-01</leafValues></_>
    <_>
      <internalNodes>
        0 -1 1573068 -4.4252636143937707e-04</internalNodes>
      <leafValues>
        7.7708768844604492e-01 -2.4585931003093719e-01</leafValues></_>
    <_>
      <internalNodes>
        0 -1 69486 1.8343415111303329e-02</internalNodes>
      <leafValues>
        2.9961943626403809e-01 -7.3605573177337646e-01</leafValues></_>
    <_>
      <internalNodes>
        0 -1 1573082 7.7001639874652028e-04</internalNodes>
      <leafValues>
        -2.7959153056144714e-01 9.3750393390655518e-01</leafValues></_>
    <_>
      <internalNodes>
        0 -1 1952316 -9.0674380771815777e-05</internalNodes>
      <leafValues>
        6.6656565666198730e-01 -1.9550794363021851e-01</leafValues></_></weakClassifiers></stage1>
</opencv_storage>
