<?xml version="1.0"?>
<opencv_storage>
<stage2>
  <maxWeakCount>10</maxWeakCount>
  <stageThreshold>-1.2385203838348389e+00</stageThreshold>
  <weakClassifiers>
    <_>
      <internalNodes>
        0 -1 1407310 1.4742726925760508e-03</internalNodes>
      <leafValues>
        -4.0180179476737976e-01 7.6842105388641357e-01</leafValues></_>
    <_>
      <internalNodes>
        0 -1 1407310 -1.6103733796626329e-03</internalNodes>
      <leafValues>
        8.2348197698593140e-01 -2.1534065902233124e-01</leafValues></_>
    <_>
      <internalNodes>
        0 -1 1071812 4.3658044189214706e-02</internalNodes>
      <leafValues>
        -4.1889601945877075e-01 4.3543645739555359e-01</leafValues></_>
    <_>
      <internalNodes>
        0 -1 81914 -2.8684904798865318e-02</internalNodes>
      <leafValues>
        -7.7890056371688843e-01 2.2328048944473267e-01</leafValues></_>
    <_>
      <internalNodes>
        0 -1 1285952 -1.2183883227407932e-03</internalNodes>
      <leafValues>
        8.0559819936752319e-01 -1.8720515072345734e-01</leafValues></_>
    <_>
      <internalNodes>
        0 -1 1830288 1.7445231787860394e-03</internalNodes>
      <leafValues>
        -1.6696989536285400e-01 9.0430796146392822e-01</leafValues></_>
    <_>
      <internalNodes>
        0 -1 1402910 -1.0442804777994752e-03</internalNodes>
      <leafValues>
        7.6576012372970581e-01 -1.6445353627204895e-01</leafValues></_>
    <_>
      <internalNodes>
        0 -1 2035556 3.0738888308405876e-03</internalNodes>
      <leafValues>
        2.2097650170326233e-01 -7.8191012144088745e-01</leafValues></_>
    <_>
      <internalNodes>
        0 -1 1395673 9.7341625951230526e-04</internalNodes>
      <leafValues>
        -1.5215219557285309e-01 8.9958709478378296e-01</leafValues></_>
    <_>
      <internalNodes>
        0 -1 1655733 -3.7109205732122064e-04</internalNodes>
      <leafValues>
        8.3139443397521973e-01 -1.4329436421394348e-01</leafValues></_></weakClassifiers></stage2>
</opencv_storage>
