<?xml version="1.0"?>
<opencv_storage>
<stage4>
  <maxWeakCount>15</maxWeakCount>
  <stageThreshold>-1.0240461826324463e+00</stageThreshold>
  <weakClassifiers>
    <_>
      <internalNodes>
        0 -1 1177751 3.1266316771507263e-01</internalNodes>
      <leafValues>
        -2.9591837525367737e-01 6.6071426868438721e-01</leafValues></_>
    <_>
      <internalNodes>
        0 -1 1589175 6.2553631141781807e-03</internalNodes>
      <leafValues>
        -3.9382177591323853e-01 2.6269790530204773e-01</leafValues></_>
    <_>
      <internalNodes>
        0 -1 64485 -2.8513036668300629e-03</internalNodes>
      <leafValues>
        -7.2308045625686646e-01 9.7388498485088348e-02</leafValues></_>
    <_>
      <internalNodes>
        0 -1 949984 -2.7656620368361473e-03</internalNodes>
      <leafValues>
        7.0563918352127075e-01 -9.7070343792438507e-02</leafValues></_>
    <_>
      <internalNodes>
        0 -1 879823 2.8795778751373291e-02</internalNodes>
      <leafValues>
        -1.4472347497940063e-01 7.3830544948577881e-01</leafValues></_>
    <_>
      <internalNodes>
        0 -1 991 2.3659197613596916e-03</internalNodes>
      <leafValues>
        1.4389428496360779e-01 -7.0292127132415771e-01</leafValues></_>
    <_>
      <internalNodes>
        0 -1 1093442 -1.7673438414931297e-02</internalNodes>
      <leafValues>
        7.9917806386947632e-01 -1.3092450797557831e-01</leafValues></_>
    <_>
      <internalNodes>
        0 -1 1301035 6.8723305594176054e-04</internalNodes>
      <leafValues>
        2.4147130548954010e-01 -4.8659375309944153e-01</leafValues></_>
    <_>
      <internalNodes>
        0 -1 1653505 -3.9545898325741291e-03</internalNodes>
      <leafValues>
        5.7797837257385254e-01 -2.1075026690959930e-01</leafValues></_>
    <_>
      <internalNodes>
        0 -1 1553877 -1.6067149117588997e-03</internalNodes>
      <leafValues>
        5.3219807147979736e-01 -2.3884822428226471e-01</leafValues></_>
    <_>
      <internalNodes>
        0 -1 151043 -3.0946494080126286e-03</internalNodes>
      <leafValues>
        -6.6058522462844849e-01 1.7655709385871887e-01</leafValues></_>
    <_>
      <internalNodes>
        0 -1 1027121 -5.7116919197142124e-03</internalNodes>
      <leafValues>
        8.9270144701004028e-01 -1.3021236658096313e-01</leafValues></_>
    <_>
      <internalNodes>
        0 -1 1674789 -8.6734665092080832e-04</internalNodes>
      <leafValues>
        3.7017732858657837e-01 -2.9288405179977417e-01</leafValues></_>
    <_>
      <internalNodes>
        0 -1 1618397 -2.5572832673788071e-03</internalNodes>
      <leafValues>
        4.9726608395576477e-01 -2.2314995527267456e-01</leafValues></_>
    <_>
      <internalNodes>
        0 -1 1228109 -4.8474278301000595e-03</internalNodes>
      <leafValues>
        6.0814821720123291e-01 -1.8811537325382233e-01</leafValues></_></weakClassifiers></stage4>
</opencv_storage>
